Q6577	-0.03070304	0.1259123	0.059368994	0.10582685	0.03498215	-0.088613905	0.039207406	0.14131272	-0.058101676	-0.07348349	-0.01207753	-0.037407268	-0.00555208	-0.023096241	0.038598403	-0.025815886	0.010870123	-0.11260469	0.0112906555	-0.14196123	0.057196494	0.0666934	0.035168152	-0.05025387	0.032927755	-0.06702403	-0.013326505	-0.04538448	-0.06394163	0.043937728	-0.004185884	0.055033587	0.00939186	-0.06693412	-0.037114564	0.069093205	0.0025838201	-0.10592318	-0.11213784	-0.13516288	0.09099572	-0.12433087	-0.045044065	0.044560157	0.056200463	-0.03707607	-0.11839258	0.0032101867	0.03008226	0.046922326	0.060144994	-0.0847541	-0.07939447	-0.032479562	-0.089224525	0.07460311	0.044141646	0.03988104	-0.080501765	0.091412134	0.034262337	0.114429265	-0.03974989	-0.0020109315	-0.13790874	0.09562957	0.0013033459	0.048925333	-0.109023795	0.035720214	-0.0424004	0.0006135114	0.030061027	-0.07492947	0.112767376	0.043611698	0.10131176	0.011345253	-0.09425751	0.020779086	-0.028399145	0.016794108	-0.048629884	0.10165488	-0.0129088005	-0.011001945	-0.017689949	0.071276605	0.16271079	0.047156416	0.065808415	0.04612522	-0.061844233	0.08386723	0.11962596	0.05151925	0.035777844	-0.046385083	0.02155716	0.012429515
Q8305	-0.04355319	0.1508892	0.0767273	0.09544727	0.039758887	-0.1779249	0.011541475	0.25042334	-0.13536565	-0.13649349	-0.022118498	-0.08806294	-0.034675483	0.030739766	0.07589821	-0.040324766	0.05948017	-0.110414654	0.05828873	-0.22882544	0.026640816	0.05677215	0.06808544	-0.057925742	0.045426287	-0.06808273	-0.036241084	-0.005556817	-0.101365104	0.07346345	0.042913478	0.03245464	0.010256355	-0.04629628	-0.032483432	0.115563355	0.04667702	-0.14300446	-0.16760083	-0.2164041	0.061724134	-0.16551161	-0.03610729	0.042480648	0.0479622	0.032314137	-0.13494243	-0.03659978	0.035481274	0.071252614	0.05959065	-0.08356066	-0.08389056	0.0034566121	-0.13516529	0.021265263	0.09183551	0.074402645	-0.081776544	0.04349376	0.011389355	0.086565346	0.0040319213	-0.06658614	-0.17889675	0.16838843	0.005764156	0.06887297	-0.21012014	0.047646947	-0.077667475	0.10082701	0.1267285	-0.0742548	0.10262491	0.05102261	0.08185875	0.024595581	-0.1317857	0.02641052	-0.053350426	-0.0009122628	-0.10346253	0.13746725	0.006689403	-0.06282336	-0.07290002	0.08444422	0.20189986	0.06973203	0.0878542	0.08740308	-0.043776866	0.10969365	0.17555898	0.049698457	0.07946955	-0.0845755	0.074088566	-0.021723561
Q8383	-0.04102225	0.16213349	0.11359041	0.13720143	-0.0077322866	-0.22718357	0.03124745	0.30649275	-0.12820992	-0.1164829	-0.029767048	-0.06721396	-0.08212189	0.014910595	0.10976333	-0.06938329	0.011277729	-0.2095258	0.03387819	-0.18458739	0.019103115	0.16250342	0.08310875	-0.09123392	0.014116197	-0.07797603	-0.046376873	-0.074077465	-0.09487899	0.07986088	0.07434299	0.024811408	0.04175198	-0.110213794	-0.056668874	0.08413844	-0.011087973	-0.19677213	-0.2064841	-0.22450837	0.06862908	-0.177046	-0.045168556	0.029345945	0.07083875	-0.030411204	-0.22311467	0.02694292	0.04050634	0.06822088	0.005338267	-0.10519344	-0.060201406	-0.043722328	-0.14176075	0.059739497	0.08833868	0.048540212	-0.10534085	0.09049999	0.041253503	0.15081742	-0.108151495	-0.046709646	-0.17418775	0.1697658	-0.06868423	0.105504446	-0.22712284	0.0045764507	-0.010322686	0.13183819	0.13587368	-0.12561607	0.2209215	0.043780103	0.11803603	0.041851304	-0.15699714	0.008912012	-0.06166054	0.015955396	-0.04333665	0.21181811	0.034790013	-0.018904384	-0.036089927	0.16509548	0.2550612	0.12122602	0.13181473	0.05619126	-0.029229555	0.16776344	0.21974571	0.13378651	0.0849349	-0.0825147	0.08498744	0.0021037583
Q8701	-0.06180944	0.19941257	0.096879266	0.10010342	0.047762442	-0.19858736	0.03472835	0.19880918	-0.13271077	-0.03358472	0.016083091	-0.0624228	-0.075723276	-0.06290668	0.10312718	-0.045913808	0.0073813973	-0.19411291	0.0049333638	-0.181633	0.06918119	0.08871642	0.06822882	-0.04702035	0.031115927	-0.07758911	-0.02350947	-0.10195738	-0.06886728	0.02828884	0.07481668	0.0027584122	0.018984519	-0.09727239	0.012979991	0.11994937	0.06104177	-0.13242055	-0.10545334	-0.17692992	0.063929304	-0.23810974	0.0015646862	0.015651062	0.037383366	-0.028419398	-0.14952144	0.056731608	0.012269399	0.13643274	0.07139722	-0.12903756	-0.08730714	-0.003894876	-0.113883145	0.07689166	0.12592033	0.03148256	-0.10872366	0.08650342	0.052947436	0.15323152	-0.081163935	0.020467024	-0.16814654	0.15469936	0.02936639	0.08447293	-0.15677144	0.047744464	-0.049150847	0.006554694	0.1181649	-0.09443965	0.16933967	0.03695525	0.06806117	0.014737136	-0.15320782	-0.0011546566	-0.095665365	-0.030598912	-0.06802418	0.16265914	0.019607361	-0.017375061	-0.036596835	0.12379142	0.22945596	0.1297773	0.1346193	0.055923074	-0.032868322	0.059095066	0.2052456	0.1947135	-0.000868674	-0.12122247	-0.010160952	0.007741855
Q10575	-0.034561615	0.16811162	0.072100274	0.100046806	0.034445427	-0.121288545	0.025080958	0.15985376	-0.08212408	-0.0746799	-0.021611165	-0.05356115	-0.022525512	-0.018131329	0.03629166	-0.030128768	0.01450677	-0.1283788	0.008568436	-0.20756416	0.06569168	0.052385002	0.044424303	-0.046133243	0.04223577	-0.0691504	-0.02361407	-0.026546054	-0.08242209	0.05819083	0.020302212	0.046540275	0.0048834765	-0.07534654	-0.028455492	0.08326626	0.005722717	-0.09982614	-0.11934577	-0.14750446	0.08901734	-0.12806374	-0.05546746	0.05327818	0.043608066	-0.009228321	-0.12273396	-0.01850387	0.03967562	0.05310581	0.09270129	-0.079564385	-0.10434731	-0.0392834	-0.0974813	0.063202746	0.062735245	0.04724935	-0.093338884	0.09362092	0.011268315	0.104963526	-0.012487693	-0.010812816	-0.18524185	0.117747515	0.024505148	0.030934593	-0.13142432	0.06568661	-0.049675956	0.013673444	0.05541192	-0.07839535	0.092810415	0.041814223	0.101587	0.024424898	-0.104588486	0.014047997	-0.048465524	-0.0142580345	-0.060293887	0.09495162	-0.015325165	-0.029197056	-0.03885873	0.07463815	0.19029029	0.05880029	0.07708635	0.05479744	-0.058118757	0.078266166	0.13893382	0.05608066	0.060664948	-0.06000246	0.028052932	-0.008694489
Q3627	-0.027205644	0.13575134	0.067810826	0.084987886	0.053952493	-0.082632236	0.04417948	0.087654665	-0.064153075	-0.017499425	0.010262205	-0.039040662	-0.021034004	-0.04340208	0.06422676	-0.0110856695	0.0012810184	-0.12521905	-0.009816813	-0.13996284	0.060074482	0.060180202	0.013461768	-0.050188053	0.025949223	-0.06905099	-0.01780876	-0.075488955	-0.05212305	0.016684161	0.02043885	0.0193608	0.012843873	-0.044561274	-0.0029760813	0.08011899	0.046909105	-0.083417	-0.064691305	-0.08681273	0.08023223	-0.15565638	-0.03388663	0.034513555	0.045882117	-0.036657587	-0.0884363	0.032175492	0.006339681	0.089282736	0.07098927	-0.08883636	-0.07193458	-0.012741539	-0.08820932	0.08851145	0.06557824	0.011275332	-0.07165636	0.086201	0.050928198	0.11302351	-0.03617658	0.049642913	-0.13608494	0.08254824	0.016300296	0.03736265	-0.06995806	0.04259825	-0.023507388	-0.01893843	0.051707752	-0.06950068	0.11418286	0.03930807	0.06792473	0.015167692	-0.07696791	0.0020017335	-0.051788792	-0.0056016394	-0.053749617	0.08531569	-0.011622251	0.0063743074	-0.0026046946	0.04514271	0.1305047	0.05279952	0.0818845	0.033616513	-0.060170166	0.041462623	0.12340271	0.09066174	0.0030571597	-0.050158292	-0.012892998	0.018504135
Q10826	-0.0447261	0.07008485	0.032971326	0.042684995	0.028340634	-0.11598443	0.010054921	0.11174971	-0.07945933	-0.029382026	-0.0104992725	-0.05551103	-0.047380336	0.0068389885	0.052585497	-0.042770002	0.027349154	-0.0703911	-5.8163336e-05	-0.099247724	0.043796167	0.02096299	0.028011706	-0.011011308	0.023388967	-0.04620326	-0.009498863	-0.03135	-0.056829896	0.043738063	0.026659613	-0.003264728	0.02673032	-0.054076664	0.008520486	0.07107673	0.04621152	-0.07452685	-0.043644357	-0.10939804	0.019310571	-0.12099474	0.004017867	-0.008652289	0.00023748599	0.010517318	-0.05664914	0.027415274	0.028060358	0.073305055	0.04589226	-0.06417675	-0.037894513	0.0067591695	-0.064842194	0.031706236	0.06811447	0.012415709	-0.037815686	0.029483503	0.008093626	0.05168145	-0.023546258	-0.020569555	-0.100683115	0.10554386	0.03051515	0.05064727	-0.08898589	0.0364197	-0.019624678	0.023618111	0.06357994	-0.038626913	0.06759653	0.041145716	0.025929602	0.022972282	-0.06418826	0.015633099	-0.057367917	-0.011571385	-0.049439043	0.09474436	0.0044832015	-0.012518911	-0.027448213	0.05763395	0.10349237	0.061092038	0.06623737	0.030052654	-0.014694579	0.029173631	0.089377396	0.074178204	-0.0024847735	-0.06325395	0.0105572725	0.014326005
Q9535	-0.022230167	0.10983138	0.04678593	0.08051734	0.004813553	-0.09902524	0.035096146	0.12661608	-0.046634834	-0.06931048	-0.009493199	-0.026897687	-0.021982042	-0.0056586824	0.033438362	-0.021678831	0.0054885857	-0.1003161	0.008324078	-0.12287535	0.04195082	0.047804695	0.03627082	-0.035451796	0.041062858	-0.053555463	-0.030443225	-0.034877017	-0.040657543	0.056096017	0.009716689	0.046157658	0.031606354	-0.061919384	-0.022949852	0.05194503	-0.010917855	-0.07789156	-0.08144437	-0.11542465	0.064962655	-0.09454894	-0.04870454	0.03168089	0.02846273	-0.03150283	-0.11681379	0.015371806	0.043940563	0.04758693	0.03850253	-0.070437394	-0.0660582	-0.03179038	-0.07625255	0.054099903	0.045594268	0.0011789764	-0.0646749	0.09354099	0.0147278905	0.09053924	-0.009703555	-0.012437396	-0.11853516	0.109311074	0.015119984	0.04052573	-0.11256022	0.020438313	-0.019669296	0.021493958	0.020192606	-0.057848204	0.09027624	0.05874153	0.08917477	0.0068674516	-0.089525156	0.022767663	-0.029252602	0.02295121	-0.018742917	0.08737491	0.0017007305	-0.01351694	-0.03368777	0.06789763	0.123750776	0.05761425	0.08122869	0.03507958	-0.047312114	0.07068219	0.07789123	0.057815786	0.019030917	-0.042323362	0.023360813	0.009540282
Q3	-0.036087636	0.148856	0.06305848	0.13029876	0.03835078	-0.1122249	0.054173727	0.13181372	-0.04801788	-0.05607235	-0.003367396	-0.04606763	-0.018004615	-0.035304334	0.04308199	-0.027435105	-0.00778421	-0.14310166	-0.006060176	-0.16859096	0.06714962	0.0642087	0.019947223	-0.045328636	0.050320685	-0.104423575	-0.0042324807	-0.0794759	-0.072184876	0.05096146	-0.008322869	0.052444547	0.037443344	-0.06004894	-0.0507344	0.085375905	0.009130873	-0.11366763	-0.09056808	-0.15265098	0.09983538	-0.16593017	-0.06750064	0.053356536	0.046685275	-0.032494023	-0.13448721	0.02387093	0.03396737	0.07545856	0.06953212	-0.098995194	-0.09642162	-0.04739315	-0.11044476	0.099486545	0.06905826	0.019214895	-0.09691299	0.1186074	0.041063398	0.124699585	-0.03695264	0.016525144	-0.17831808	0.11468307	0.025815321	0.05225979	-0.12815544	0.04629288	-0.03803961	-0.0045162654	0.02929107	-0.10005994	0.124774724	0.053349208	0.11468013	0.027003888	-0.11021908	0.009318386	-0.037211668	-0.0020560224	-0.035456978	0.11958238	-0.012615568	0.0015678391	-0.027038587	0.0764365	0.17391974	0.065419964	0.08179157	0.060985584	-0.07735008	0.07808509	0.13636887	0.07899965	0.024138324	-0.040182948	0.006980708	0.013369506
Q4	0.02101691	0.23298006	0.18230441	0.32184723	0.07582997	-0.012269029	0.19360052	0.12156978	-0.028286934	-0.120928854	0.0031598238	-0.08658743	0.09088912	-0.107487835	-0.009624064	-0.03728356	8.971795e-05	-0.25611088	-0.10588458	-0.36298856	0.20251603	0.057206288	-0.12759836	-0.088084355	0.09384772	-0.34922662	-0.115005404	-0.24225308	-0.14215079	0.1137854	-0.13040905	0.14002825	0.076159045	-0.17836092	-0.06971516	0.2781622	0.05936098	-0.08398031	-0.076254256	-0.21486017	0.3376278	-0.47258633	-0.26045695	0.27454415	0.16531149	-0.21914099	-0.20011218	0.10912118	0.029191079	0.29447934	0.22216615	-0.3957383	-0.23598093	-0.11954377	-0.39908713	0.4654128	-0.0026563972	-0.028775133	-0.17730221	0.36180654	0.124596894	0.24655265	0.09381705	0.18581508	-0.5164131	0.4007404	0.17281143	0.13131632	-0.067067206	0.14382483	0.09044767	0.004021474	-0.044640116	-0.2694425	0.4210247	0.1974744	0.20169356	0.07101366	-0.14136373	0.17180073	-0.1688927	0.002533217	-0.14005236	0.3115649	-0.114259325	0.06906598	0.1335411	0.052496426	0.18376665	0.15537578	0.33449087	0.13443331	-0.18830477	0.14886072	0.22963776	0.06898331	-0.029370992	-0.12576656	-0.16888303	0.052160278
Q10780	-0.026052797	0.21405914	0.10798738	0.16474088	0.049222156	-0.10710068	0.09543879	0.15387464	-0.087367855	-0.07131451	0.00473706	-0.05056522	0.0070683328	-0.07437909	0.066691585	-0.022747617	-0.010278368	-0.20201176	-0.0029736385	-0.2541363	0.10084201	0.09274541	0.014070884	-0.07600856	0.032219533	-0.14571567	-0.040892288	-0.105146	-0.09000801	0.024891905	0.0007771141	0.061853334	0.0057123024	-0.08399207	-0.028074548	0.1335726	0.033023003	-0.108248964	-0.11589942	-0.13567182	0.18922514	-0.23088849	-0.10207122	0.112027735	0.080583125	-0.07188051	-0.17613976	0.047803096	0.0039235563	0.11945654	0.09808069	-0.15731175	-0.14860255	-0.06867045	-0.17876856	0.16788942	0.069027804	0.03841754	-0.10392966	0.15492742	0.067077845	0.19100985	-0.0363687	0.07343696	-0.24135603	0.17833956	0.043281578	0.058014	-0.14000738	0.054786123	-0.045979373	-0.027998395	0.037785668	-0.13918503	0.21353927	0.057574216	0.12157973	0.024101656	-0.12627643	0.020563884	-0.082976736	-0.008498346	-0.07172091	0.15650919	-0.042960986	0.0073747314	-0.0008406244	0.107185446	0.19768463	0.07141834	0.14000407	0.072090946	-0.10530728	0.113733046	0.20217733	0.098199435	0.022846788	-0.058687385	-0.036748253	0.024212724
Q13125	-0.033564065	0.12360696	0.16608967	0.21945655	-0.09913522	-0.33072624	0.06807532	0.4652972	-0.10562454	-0.203117	-0.05609217	-0.08519602	-0.14390711	0.07335137	0.18872128	-0.11463147	-0.03441516	-0.3575099	0.057725906	-0.15381233	-0.010667003	0.2815973	0.099936366	-0.19343334	0.02252659	-0.07836167	-0.063425675	-0.16086023	-0.098738045	0.11436812	0.07843143	0.038053866	0.10260923	-0.10357815	-0.09682158	0.056482594	-0.028983587	-0.32798404	-0.3582837	-0.31743923	0.102111086	-0.18770069	-0.08628034	0.016473558	0.12623313	-0.04141239	-0.3658413	0.049960233	0.041591585	0.06383514	-0.0902534	-0.16243748	-0.081057824	-0.06288264	-0.19807297	0.073076606	0.13958883	0.081247084	-0.109305434	0.11878558	0.035453644	0.25618264	-0.22485167	-0.12950881	-0.17473781	0.21493874	-0.20951599	0.13498595	-0.34708884	-0.08276991	0.028287612	0.22265367	0.20106965	-0.17701055	0.32622385	0.035138097	0.1901802	0.038519524	-0.24133725	-0.048641924	-0.06808676	0.120568775	0.0031944239	0.36387348	0.060989074	-0.019514056	-0.014660174	0.281182	0.3375942	0.14419998	0.15865475	0.044786386	-0.050428327	0.3247255	0.2704402	0.18019034	0.18455112	-0.059287068	0.19664623	0.012377347
Q10763	-0.031181078	0.09682943	0.074911974	0.117942885	-0.00085364754	-0.1172874	0.03217285	0.16455473	-0.051969245	-0.0779156	-0.002626346	-0.034461237	-0.03869967	-0.0032002358	0.05764009	-0.04696136	0.0024508638	-0.126798	-0.000589827	-0.116880514	0.05448059	0.08204055	0.032686163	-0.053149838	0.02706269	-0.07965558	-0.027826384	-0.07328389	-0.049344532	0.05122667	-0.0027390826	0.043824468	0.04434505	-0.06578589	-0.021960683	0.06552976	0.009160534	-0.11427612	-0.10399177	-0.14122887	0.07832533	-0.13830227	-0.05094246	0.035101563	0.04468741	-0.034816206	-0.13030848	0.031009927	0.030173564	0.0706612	0.02340155	-0.09730415	-0.071026295	-0.023179438	-0.090578206	0.07758116	0.044824757	0.019941645	-0.061862383	0.0878051	0.030402115	0.11915617	-0.04589566	-0.016546518	-0.13699315	0.119072944	-0.0053853234	0.05296311	-0.12631178	0.012056196	0.008251607	0.0498668	0.045125708	-0.08345528	0.14728831	0.06374311	0.07937856	0.011727467	-0.1049039	0.007986083	-0.039424676	0.033917706	-0.037595388	0.14123622	-0.009883682	0.0051503177	-0.014051495	0.07862951	0.124711834	0.07547725	0.10872237	0.04317086	-0.0383053	0.10849121	0.12574926	0.08248086	0.032585897	-0.049850766	0.015063737	0.019050458
Q7289	-0.044133753	0.251822	0.08889554	0.13298295	0.089960255	-0.10997181	0.039541166	0.1957208	-0.123369314	-0.09729858	-0.012275926	-0.071084395	0.0077681025	-0.04431239	0.04327151	-0.005457515	0.025505904	-0.12911615	0.04830903	-0.3105387	0.102506414	0.052928973	0.041479282	-0.049468413	0.062132854	-0.09715016	-0.038084995	-0.027736902	-0.08511081	0.029436532	0.033194523	0.07123069	-0.048839733	-0.087010495	-0.04123511	0.11580003	0.014381289	-0.11170896	-0.14451772	-0.16060397	0.13659826	-0.18295588	-0.08050654	0.097463064	0.06472546	-0.036072105	-0.17452191	-0.03665691	0.03611325	0.06874775	0.13799447	-0.109782085	-0.14074685	-0.032538835	-0.13943549	0.09882836	0.054156568	0.06389959	-0.12955058	0.10476243	0.05505633	0.15158115	-0.004788355	0.019390248	-0.22269274	0.13618422	0.06969376	0.06189626	-0.16873944	0.11874592	-0.10293778	-0.020752467	0.04897891	-0.09360182	0.13924628	0.030508084	0.12706488	0.050267708	-0.12657641	0.03598592	-0.04715018	-0.03242757	-0.10593471	0.08738733	-0.042218465	-0.023256674	-0.041618396	0.088800654	0.23680083	0.045147154	0.099018104	0.08766526	-0.09931519	0.068704225	0.20418985	0.048103888	0.03419239	-0.07791325	0.0033590386	-0.035706986
Q4818	-0.031851184	0.108571604	0.07352703	0.08615075	-0.000559915	-0.12237393	0.007940341	0.18556538	-0.058920268	-0.07982464	-0.02601604	-0.0503006	-0.050949536	-0.0015380937	0.048557382	-0.048496343	0.010256566	-0.11995858	0.016017998	-0.13398255	0.039891027	0.09016107	0.037347376	-0.051521502	0.023947153	-0.057873495	-0.026331764	-0.045141343	-0.05560166	0.058005553	0.00767595	0.03791366	0.012464479	-0.06382508	-0.038222075	0.06691043	0.0022499328	-0.11852389	-0.13091499	-0.1426095	0.061451387	-0.115025826	-0.039370738	0.015370542	0.04855392	-0.024036963	-0.12320261	-0.00032034508	0.03512381	0.050457407	0.0259247	-0.0823899	-0.05260425	-0.032760166	-0.08498663	0.046302166	0.05711516	0.040211875	-0.06722872	0.081941485	0.021348132	0.10380116	-0.041296076	-0.03907888	-0.14770934	0.121212214	-0.011360988	0.053058293	-0.13324744	0.025663322	-0.020110605	0.05060866	0.06440512	-0.062183883	0.11302426	0.03855918	0.08439979	0.012918123	-0.10258604	0.0032731935	-0.040298965	0.0077034365	-0.040629357	0.12317977	0.00096281647	-0.01672835	-0.00927641	0.0835075	0.16196683	0.06361834	0.06810635	0.04629898	-0.029879209	0.10664277	0.12673174	0.05651173	0.06670222	-0.057340518	0.04099898	0.00096467196
Q5037	-0.05729588	0.22756055	0.08014718	0.12270849	0.07281657	-0.12159049	0.018684808	0.22137123	-0.13730037	-0.112966605	-0.013306838	-0.07635597	-0.002328161	-0.022628624	0.030662281	-0.012470445	0.05506757	-0.10332402	0.03212764	-0.2846092	0.07778684	0.03472827	0.036409296	-0.038786557	0.04253398	-0.09312919	-0.06945467	0.0049999864	-0.08901516	0.04914542	0.044661738	0.039800763	-0.04696111	-0.09321831	-0.027906839	0.1002449	0.03637026	-0.09119083	-0.122778565	-0.13897069	0.11711129	-0.16633147	-0.065000065	0.08521545	0.058301307	-0.012386414	-0.13918194	-0.03153072	0.041910768	0.05991048	0.11005155	-0.104361154	-0.11612374	-0.025901604	-0.14540787	0.065671355	0.07051353	0.06400909	-0.08720103	0.089880906	0.019755851	0.12748629	0.028090462	0.011660422	-0.20830622	0.16007778	0.06918139	0.045933098	-0.1627535	0.10192669	-0.07188562	0.0064736553	0.08127434	-0.06816176	0.13167337	0.027132293	0.1046507	0.05266948	-0.090719245	0.04559918	-0.07134108	-0.047210686	-0.10077201	0.09813504	-0.02726007	-0.039918758	-0.03162472	0.06902012	0.20696	0.04029986	0.07864296	0.07632529	-0.05612354	0.07822322	0.19878332	0.049975064	0.08397051	-0.06609267	0.0015128384	-0.025847357
Q11	-0.07707546	0.24694695	0.15095644	0.2603261	0.07356928	-0.059505187	0.088334054	0.18964183	-0.06082975	-0.1661427	-0.062151875	-0.12832096	-0.004956311	-0.0035546152	-0.050239585	-0.019044006	0.057212494	-0.10304461	-0.07853738	-0.44696414	0.27782148	0.041504245	-0.10425234	-0.03037264	0.09854884	-0.25109258	-0.14034857	-0.13074367	-0.122240186	0.17937003	-0.06716741	0.17922708	0.07118411	-0.25553533	-0.050816	0.23569071	0.0032615443	-0.04633213	-0.10056024	-0.26443934	0.2519367	-0.35230312	-0.25753573	0.17693669	0.08995216	-0.1692696	-0.21418507	0.023172732	0.13521212	0.23515062	0.24511419	-0.36053774	-0.2169753	-0.059461236	-0.31889337	0.39641804	-0.0035323303	-0.047391318	-0.14968498	0.36892083	-0.04082292	0.17144994	0.15585689	0.006540415	-0.49001777	0.41123506	0.2301099	0.105196744	-0.086736515	0.22059011	0.032528743	0.0029210306	-0.030615404	-0.15769243	0.28423265	0.17415312	0.20023377	0.035054285	-0.16982101	0.15273918	-0.2020684	0.043805793	-0.1256686	0.2611876	-0.06745817	0.03387866	0.06205745	0.004687971	0.18078418	0.09952862	0.3210154	0.10743675	-0.100381926	0.14033152	0.20115475	0.065557525	0.02389906	-0.18127066	-0.11898244	0.13155836
Q12	-0.053995416	0.41408515	0.00896599	0.39212805	-0.08738392	-0.083431825	0.21103111	0.2608011	-0.050726462	-0.3556363	-0.04120574	-0.08634027	0.31875935	0.023397684	-0.19208163	0.023136344	0.17727016	-0.13491054	-0.18498445	-0.6539082	0.29775378	0.026344653	-0.13768432	-0.104357146	0.04932158	-0.3432001	-0.104715295	-0.07931554	-0.10541784	0.43368503	-0.20391755	0.23042424	0.0734345	-0.26206157	-0.32193628	0.1679576	-0.20294389	-0.035340656	-0.18785697	-0.35238305	0.43262088	-0.23018388	-0.6055844	0.3213085	0.17960608	0.040647194	-0.3188888	-0.14952374	0.23629297	-0.0147752855	0.3783919	-0.23151767	-0.42988038	-0.19232737	-0.43021148	0.4676055	-0.085733056	0.019719439	-0.137246	0.41669038	-0.21227835	0.24445069	0.32728595	-0.025099238	-0.60577154	0.5267384	0.19903333	-0.045557	-0.39211622	0.25909713	-0.2476196	0.002230112	-0.106988095	-0.3038538	0.03293443	0.19978842	0.3494003	0.084258124	-0.12939313	0.2472942	-0.19650239	0.14710023	0.08253424	0.20115194	-0.15408881	-0.11907305	-0.03912583	0.10909274	0.33691627	-0.08240682	0.16568576	0.16147797	-0.19551475	0.38967478	0.20102589	-0.21771353	0.1685589	0.029355513	0.0354176	0.11172282
Q13	-0.036978457	0.16640423	0.08249979	0.11631752	0.035130378	-0.09239718	0.034321703	0.17585468	-0.05988129	-0.08832917	-0.034120757	-0.05487385	-0.011784484	-0.00435103	0.014484748	-0.027843934	0.018967243	-0.1067792	-0.008933504	-0.23484059	0.09238052	0.03280769	0.0073568136	-0.021416837	0.057289008	-0.09290951	-0.04158642	-0.044218525	-0.072792344	0.08709743	-0.0035582203	0.07496602	0.010884366	-0.09526405	-0.040156536	0.09832287	0.01139908	-0.076637	-0.093371294	-0.16511652	0.09998669	-0.15236308	-0.072165504	0.059325464	0.03833013	-0.03754003	-0.124118626	-0.0050238254	0.06007427	0.083388165	0.09893031	-0.12554607	-0.11761711	-0.03479629	-0.12074977	0.103908695	0.041237466	0.022993151	-0.09968904	0.12989856	0.011433132	0.099748455	0.023340581	-0.020162491	-0.21484086	0.16247578	0.0672342	0.045618683	-0.12448208	0.088713236	-0.039393544	0.011332754	0.031159418	-0.076390326	0.116237976	0.04933632	0.09878141	0.02928588	-0.09491261	0.044529572	-0.067036495	-0.003619775	-0.056082908	0.114909895	-0.020232577	-0.022189029	-0.0018147097	0.06221165	0.15962137	0.05492789	0.122330114	0.061735027	-0.05725481	0.08831445	0.12911923	0.037902884	0.052657977	-0.07798309	-0.008983079	0.029454837
Q14	-0.015041183	0.08471565	0.055238035	0.1104711	0.002927213	-0.10991714	0.07019523	0.13511255	-0.037686598	-0.066698246	-0.010241664	-0.035969805	-0.03779797	0.0026447368	0.053967886	-0.04211144	-0.016395455	-0.11762345	-0.016149195	-0.10137265	0.06114246	0.069982804	0.023519501	-0.054527156	0.03965596	-0.08882001	-0.021261392	-0.119011015	-0.04539606	0.06802936	0.0017324097	0.049245626	0.07230133	-0.05668138	-0.02794586	0.07254203	-0.010404231	-0.10411351	-0.093399815	-0.14313753	0.07682335	-0.1362209	-0.057929255	0.04460884	0.043462723	-0.04241867	-0.11844846	0.027208462	0.014966229	0.06730345	0.05380927	-0.13056567	-0.070976384	-0.043604326	-0.11091335	0.10652411	0.032349385	0.0027572159	-0.061462995	0.1233677	0.023600783	0.11394057	-0.013383194	-0.013568512	-0.1675407	0.13881955	0.0059191403	0.06854638	-0.117158376	0.02821638	-0.012517513	0.03337551	0.03414172	-0.07198232	0.13351032	0.05945463	0.06881201	0.0055711074	-0.10260778	0.019882428	-0.03722799	0.03273194	-0.03554597	0.13912119	-0.0064938734	-0.0091572	-0.0011351788	0.07301814	0.13828991	0.056201145	0.122293025	0.02387038	-0.044924892	0.09772569	0.0806824	0.07459061	0.037022498	-0.05496857	0.02517707	0.0323402
Q16	-0.027147878	0.195228	0.10637663	0.18471254	0.024091676	-0.14396462	0.06797941	0.22629066	-0.07591033	-0.12862483	-0.017927028	-0.07229466	-0.0057181497	-0.015353155	0.050699405	-0.022265257	0.028517144	-0.18418832	0.018824855	-0.2670918	0.09608596	0.07954815	0.033783637	-0.0974395	0.04460445	-0.12521249	-0.05629859	-0.06905548	-0.098503	0.08109261	-0.0054850522	0.07662578	0.03739814	-0.06583763	-0.060176916	0.121648096	0.021296054	-0.14905676	-0.18645513	-0.21921144	0.1401136	-0.20857169	-0.10696642	0.10044818	0.08515358	-0.010769059	-0.18539622	0.008325251	0.05501363	0.07665075	0.09670973	-0.1315368	-0.15394038	-0.050732788	-0.19162123	0.11316728	0.087766014	0.031184755	-0.103196956	0.118756495	0.042533815	0.17587546	0.0052308887	-0.007225342	-0.26447013	0.20543799	0.0040761023	0.05695802	-0.22372453	0.07230733	-0.065532036	0.04713158	0.065210864	-0.14070383	0.15597416	0.0892244	0.15473057	0.029471017	-0.14535908	0.04195531	-0.05064139	0.011588654	-0.09249389	0.17999025	-0.049812775	-0.04367721	-0.01588997	0.1099579	0.21667923	0.06006804	0.11575302	0.08739645	-0.10891285	0.14904751	0.17949103	0.04262748	0.073480986	-0.054927196	0.04660464	0.025120735
Q18	-0.026962487	0.1456771	0.100679964	0.12054769	0.03074138	-0.11763162	0.03208602	0.17608646	-0.08322505	-0.06950266	-0.037329372	-0.050980568	-0.04507205	-0.015520002	0.07747241	-0.045987703	-0.00092270394	-0.16306406	0.017121496	-0.18756886	0.04904664	0.09550833	0.04127631	-0.062019326	0.044472415	-0.07926171	-0.029108478	-0.072546504	-0.08151205	0.056216784	0.017930394	0.035741687	0.018327003	-0.0885963	-0.04849308	0.09114584	0.012715915	-0.13920777	-0.13859598	-0.16278517	0.10318291	-0.16739234	-0.07920349	0.05826735	0.053934358	-0.053375784	-0.14825296	0.014744488	0.0464605	0.073455974	0.043267567	-0.12727349	-0.08739958	-0.03972562	-0.13436198	0.084300034	0.06831928	0.045422282	-0.09387827	0.11629911	0.044483595	0.13192956	-0.06693809	0.00035188938	-0.18344894	0.14085923	-0.0076530618	0.07532475	-0.13889752	0.03778153	-0.021549216	0.042044103	0.06866142	-0.11424582	0.18186203	0.030578816	0.10706197	0.020441422	-0.112357736	0.021845587	-0.06388453	0.0149093475	-0.04454246	0.16246143	-0.007504545	-0.015059405	-0.0050078505	0.11554884	0.18722266	0.073096596	0.11381386	0.04808356	-0.06295849	0.1076512	0.14606434	0.09446429	0.05942472	-0.06907762	0.025289284	-0.0069246176
Q19	0.00456109	0.15805528	0.14607581	0.36986974	0.007849303	-0.0531422	0.25701758	0.14033434	-0.0125722615	-0.2066192	-0.04133897	-0.07407796	0.12836105	-0.051957093	0.040039502	-0.026846288	0.026579408	-0.26110944	-0.09118051	-0.37271965	0.15920043	0.090655744	-0.12347668	-0.18563819	0.09702409	-0.3388207	-0.09759068	-0.3029481	-0.14599262	0.21728651	-0.15229294	0.20344384	0.14149722	-0.08498358	-0.17178993	0.21979575	0.002882743	-0.09763083	-0.1787934	-0.25486645	0.3742331	-0.40105122	-0.31712013	0.3150783	0.18620026	-0.09586869	-0.24320123	0.05596872	0.038941696	0.1114418	0.28200954	-0.3423992	-0.29735854	-0.18291616	-0.4146436	0.39722624	0.028331846	-0.007957073	-0.121986575	0.31698412	0.07692189	0.27203366	0.14067413	0.07364977	-0.51918244	0.4049069	0.089260176	0.0826691	-0.2554743	0.13724117	-0.07093972	0.039104745	-0.035120104	-0.24450299	0.28254727	0.21443051	0.2550519	0.036772255	-0.14912477	0.1255741	-0.094880365	0.10684022	-0.13139354	0.2895471	-0.14353117	0.0047086542	0.08530223	0.06756887	0.23272836	0.023703959	0.24871436	0.106862724	-0.21541557	0.28620374	0.15179338	-0.07420525	0.07969217	-0.0007079168	-0.017111458	0.061702304
Q21	-0.08583143	0.09359621	0.14278688	0.17038086	0.02353168	-0.2957253	-0.01915001	0.42656773	-0.1279445	-0.25843772	-0.073458426	-0.17172118	-0.13935152	0.080985025	0.093991645	-0.07506708	0.068573445	-0.17008844	0.09348928	-0.2961895	0.13848476	0.06130613	0.13016628	-0.052503224	0.16514836	-0.101882935	-0.01826963	0.026455877	-0.20454076	0.2516301	-0.030095685	0.10570043	0.12777238	-0.07860474	-0.11574841	0.16192079	0.015250737	-0.33001328	-0.29771146	-0.43167895	0.028728358	-0.16239922	-0.091995254	-0.044196237	0.07423702	-0.007739885	-0.21791805	-0.096244104	0.16937004	0.1164707	0.13133022	-0.15227354	-0.092009455	0.0034333675	-0.16541484	0.036364365	0.12164614	0.1168846	-0.12824479	0.12586726	0.011519843	0.12518671	0.030533027	-0.23525904	-0.3999314	0.2796785	-0.0065057916	0.13774015	-0.32946604	0.1359097	-0.06021162	0.17029828	0.1344054	-0.106738426	0.14774816	0.12588723	0.15937042	0.025435502	-0.26046348	0.07677892	-0.073656395	0.0050421115	-0.1496843	0.29065433	-0.038611043	-0.06410472	-0.07458627	0.11902099	0.3052528	0.114264116	0.15780291	0.11419676	-0.09989263	0.16719973	0.19553366	0.01768529	0.1297581	-0.18697068	0.17401929	-0.009541829
Q4351	-0.020652836	0.118629314	0.09030749	0.12373123	0.019058367	-0.12866482	0.03388549	0.17457667	-0.051146153	-0.085133575	-0.007060579	-0.05368191	-0.041019216	-0.02116958	0.05189149	-0.04684466	-0.00066930626	-0.16386877	0.009668188	-0.16604257	0.05757432	0.08575702	0.03862312	-0.050181054	0.033465423	-0.07446701	-0.031557545	-0.06587845	-0.06863272	0.06723932	-0.012591765	0.04438574	0.05618998	-0.07389033	-0.056759834	0.07302353	0.002241026	-0.15045962	-0.12312503	-0.16323723	0.097314395	-0.14612612	-0.071382895	0.024732627	0.049478423	-0.044210717	-0.14063811	0.0059511857	0.042757723	0.06492231	0.049104087	-0.116258785	-0.07595304	-0.022921473	-0.113761134	0.088380426	0.056050573	0.02832808	-0.08107828	0.11322516	0.029320652	0.11565552	-0.045349356	-0.025556026	-0.18788192	0.13890848	-0.0072152764	0.058515597	-0.13952371	0.03807935	-0.027443124	0.032004483	0.044390265	-0.10242992	0.13934164	0.044041935	0.09883154	0.02046191	-0.11508065	0.019643297	-0.054062378	0.017289745	-0.035444133	0.1566628	-0.022032011	-0.0070893224	-0.00031965377	0.09446074	0.15880136	0.064772174	0.098132975	0.05629609	-0.061095603	0.10454245	0.125107	0.073407136	0.041145295	-0.06126853	0.02471789	0.018076813
Q23	-0.010264538	0.23984371	0.16334102	0.31317025	0.09093736	-0.072009005	0.18735208	0.0042024674	0.07852824	-0.06379254	0.0582776	-0.005168665	0.0114689	-0.18365261	-0.016622486	-0.04348493	-0.08230411	-0.33057672	-0.15167634	-0.23775595	0.2568609	0.08118937	-0.069016844	-0.055540163	0.12590355	-0.3745271	-0.025942221	-0.30430058	-0.099294275	0.17009522	-0.18704735	0.17156348	0.20386173	-0.21324763	-0.0863071	0.2697816	0.04675008	-0.19010173	-0.072213165	-0.26392817	0.2937592	-0.47100914	-0.18625185	0.15119898	0.0789323	-0.24331933	-0.22642972	0.14196561	0.052753523	0.2905928	0.23694988	-0.42302772	-0.24146564	-0.103671625	-0.29221147	0.49245945	0.046642564	-0.050153147	-0.18085262	0.4786054	0.20528552	0.26102906	0.0853862	0.2017343	-0.5370479	0.36134696	0.15999575	0.10845702	-0.03969663	0.11659957	0.11220212	-0.08223153	-0.13148744	-0.2789421	0.38529256	0.22914617	0.23788805	-0.03332306	-0.23051754	0.12629464	-0.15367895	0.016195253	-0.11376437	0.28179905	-0.13138999	0.06958075	0.09459237	0.07877033	0.18638556	0.21958587	0.3616614	0.09594858	-0.22651954	0.096547596	0.14189517	0.16925202	-0.12781096	-0.14973874	-0.17325136	0.110953815
Q4876	-0.055595137	0.18382546	0.09502582	0.111905836	0.044810355	-0.1152365	0.030330384	0.16515368	-0.08207507	-0.049870044	-0.023880374	-0.05014667	-0.028102787	-0.03889435	0.035551652	-0.026672825	0.0037384934	-0.12813494	0.012549727	-0.21778661	0.10625537	0.067830004	0.023174929	-0.029323239	0.055620436	-0.09359484	-0.039434865	-0.048819173	-0.073331445	0.04245699	0.020785255	0.060248077	0.008896778	-0.10242197	-0.019151255	0.089058734	0.0046981666	-0.11352142	-0.10929209	-0.14481707	0.11112824	-0.17082953	-0.05191758	0.053493097	0.040065665	-0.056365617	-0.1566996	0.0062575196	0.05188069	0.0883249	0.09167519	-0.1300991	-0.101535216	-0.034448043	-0.10505104	0.10526278	0.0678301	0.026429811	-0.11174346	0.14526616	0.03919576	0.12030703	-0.035641596	0.011282686	-0.20665209	0.1324799	0.048124887	0.054693867	-0.099599615	0.0914642	-0.04299066	-0.007600559	0.03151975	-0.101220764	0.15747465	0.041537818	0.10846931	0.030267209	-0.12360769	0.029836722	-0.07272926	-0.0030718264	-0.061085567	0.1261713	-0.024614029	0.0016565938	-0.009344673	0.07870845	0.1983751	0.08211083	0.110099286	0.07093063	-0.054880906	0.07013365	0.1539905	0.09457272	0.022021864	-0.08573468	-0.009697929	0.0103753125
Q30	-0.0447358	0.15462564	0.11037574	0.17515299	-0.005964226	-0.17673226	0.071041025	0.2654337	-0.073600724	-0.14734316	-0.03162857	-0.06878972	-0.045175534	0.0050913305	0.08754522	-0.04203398	0.018543577	-0.20757766	0.0101818545	-0.19810864	0.08492455	0.14254892	0.045959286	-0.099441335	0.052412372	-0.1345422	-0.06114302	-0.10952071	-0.10296647	0.103712216	-0.009890884	0.08854348	0.07838847	-0.10597003	-0.039490733	0.12979929	-0.0061856327	-0.160987	-0.16912664	-0.23338231	0.13846573	-0.20470929	-0.11384432	0.076303184	0.07800351	-0.067394964	-0.2264219	0.046096206	0.052897915	0.09709315	0.063343674	-0.18491127	-0.12637755	-0.06716532	-0.20234537	0.15272461	0.059354454	0.025336768	-0.11301606	0.17706113	0.04944341	0.18554366	-0.04103019	-0.029414153	-0.2579623	0.23573758	-0.016025575	0.099798694	-0.20005581	0.036881786	-0.0026033306	0.08376948	0.060186353	-0.14510885	0.22212556	0.095233075	0.17828798	0.013159524	-0.15700205	0.02349098	-0.09541781	0.07126073	-0.05401415	0.23804326	-0.013739687	-0.011504924	0.007835513	0.1279995	0.22896093	0.09778106	0.1920387	0.050228834	-0.069902144	0.171137	0.1628898	0.09416157	0.082984544	-0.0828894	0.050675943	0.023908142
Q4721	-0.017617973	0.14017221	0.1427566	0.2950156	-0.07043773	-0.18460985	0.16331705	0.25193727	-0.01619595	-0.21670452	-0.05484103	-0.09670582	0.060028963	0.03617421	0.061292652	-0.060205474	0.045800153	-0.25350907	-0.043549478	-0.22404428	0.118933715	0.16285264	-0.021487376	-0.17456767	0.07162634	-0.21910717	-0.055542834	-0.1874646	-0.109965995	0.22721949	-0.09058847	0.12531939	0.13963407	-0.0952742	-0.16891265	0.15007035	-0.043823455	-0.21911976	-0.23159754	-0.28092736	0.25325355	-0.24820794	-0.2432006	0.14538096	0.17185652	-0.036300078	-0.2723438	0.025592756	0.060133565	0.06327222	0.1189978	-0.26593605	-0.17802449	-0.10819215	-0.32032758	0.29515672	0.06561203	0.038587954	-0.098416634	0.24635926	0.018919788	0.2783763	0.004309218	-0.05674798	-0.35358357	0.3276304	-0.06501309	0.10335285	-0.27995118	0.031922407	-0.023538671	0.10001923	0.047844317	-0.22197515	0.25152767	0.1348908	0.21188062	0.0111000035	-0.1822652	0.071817264	-0.11202264	0.15355706	-0.003662558	0.31946445	-0.06465567	-0.027078338	0.031811222	0.15678082	0.24759892	0.065193094	0.18915132	0.07166321	-0.14260015	0.31074673	0.15767373	-0.025372358	0.13905738	-0.01052392	0.10475193	0.04964572
Q31	0.02637404	-0.03013845	0.18036593	0.39317626	-0.24537793	-0.23232275	0.2805665	0.34018743	0.09832804	-0.20993751	-0.039011717	-0.034984548	-0.047108203	0.051051848	0.09997179	-0.1294829	-0.07280668	-0.396164	-0.12633379	-0.10068813	0.08119044	0.33573106	-0.046949353	-0.26388985	0.025301948	-0.26654288	-0.10807342	-0.43545008	-0.08763902	0.26285362	-0.15694147	0.1736604	0.33975533	-0.1479338	-0.16301136	0.09615613	-0.11310694	-0.26325095	-0.28935137	-0.35203928	0.28778398	-0.32731548	-0.32411614	0.16655411	0.15214866	-0.17620198	-0.41611144	0.16822362	0.045869328	0.12305493	-0.038846083	-0.38720673	-0.20185997	-0.17863114	-0.3800373	0.42549452	0.028604	-0.08707827	-0.09302308	0.35550126	0.011703412	0.3456904	-0.083354436	-0.06777666	-0.38106146	0.43345886	-0.1516203	0.18474528	-0.3114271	-0.08290397	0.13204165	0.26933804	0.019960495	-0.30912456	0.4497585	0.23094897	0.25677073	0.002158865	-0.2482823	0.03017455	-0.10508092	0.30827	0.088653855	0.52456456	-0.023490315	0.040687695	0.1490241	0.21198142	0.17365998	0.12713799	0.36690417	0.014292907	-0.12924264	0.47469267	0.14787626	0.11951232	0.16374967	-0.002425641	0.11955596	0.1843151
Q32	-0.0025604446	0.113249324	0.0730685	0.13424723	0.025155934	-0.075025454	0.07361258	0.105352335	-0.028225932	-0.08079922	-0.0064181923	-0.026763896	0.013932416	-0.022778114	0.040209394	-0.016838992	0.00067757687	-0.13313586	-0.0136394985	-0.1357399	0.0565429	0.050368328	0.008752397	-0.08108118	0.046643652	-0.11402317	-0.021472935	-0.087419346	-0.054551158	0.057169355	-0.014942876	0.059143797	0.03103981	-0.07161761	-0.056122072	0.09831511	0.01149763	-0.093525656	-0.077958874	-0.12075842	0.13619511	-0.16974595	-0.09656127	0.08623719	0.07448444	-0.03565865	-0.12389027	0.03461098	0.0074235597	0.058973428	0.07328287	-0.11985127	-0.09572724	-0.046260625	-0.13632546	0.1447553	0.04035817	0.026668023	-0.083416685	0.13422644	0.05885124	0.13239914	-0.003612585	0.032257237	-0.16765867	0.1310299	0.014391063	0.048311967	-0.09651603	0.02281581	-0.013630696	0.005328046	0.01048314	-0.10298477	0.1312196	0.07107686	0.10264178	0.02121471	-0.081729375	0.03523418	-0.0563368	0.026382603	-0.029130798	0.13021842	-0.027484167	-0.0010327579	0.012441799	0.08295356	0.14556432	0.055425033	0.099209964	0.058143105	-0.08303266	0.09903824	0.09973724	0.028029533	0.02200445	-0.036153622	0.0052338718	0.0063386955
Q40	-0.13445954	0.16976346	0.09803728	0.20070204	0.062380716	-0.30671737	-0.010970876	0.45310274	-0.23961063	-0.28251168	-0.036603484	-0.23730761	-0.10625218	0.1573878	0.026500868	-0.06779571	0.20860264	-0.066633634	0.031129329	-0.46326515	0.13418736	-0.07052722	0.060641296	-0.012170887	0.1537098	-0.14312889	-0.07214385	0.043564726	-0.22008742	0.2551492	0.05440364	0.06562092	0.12338317	-0.080925725	-0.080001034	0.22893968	0.12928748	-0.19114394	-0.1945524	-0.41522375	-0.020061102	-0.26087388	-0.08767817	0.0009133198	0.0017769593	0.10846516	-0.0949522	-0.07734908	0.17036219	0.20698167	0.18976152	-0.16003877	-0.13070889	0.07064533	-0.23110314	0.019877596	0.140379	0.04933786	-0.07964238	0.052087117	-0.11303593	0.03537286	0.23197968	-0.26225173	-0.4452295	0.41529176	0.17790951	0.108230345	-0.3859533	0.23374286	-0.09438221	0.21996431	0.20123975	-0.064735726	0.030334985	0.18790154	0.064410165	0.09498107	-0.20210646	0.15717968	-0.11677163	-0.04526147	-0.21952803	0.24233834	-0.008681451	-0.12918234	-0.12366142	-0.03377666	0.2432993	0.08936505	0.1841382	0.1455533	-0.015999924	0.15032494	0.23343106	-0.00060553633	0.10063271	-0.23172297	0.10724002	0.046293255
Q7179	-0.038689237	0.13469534	0.04462165	0.09873788	0.024689583	-0.09728875	0.030090524	0.1469933	-0.06187282	-0.07339499	-0.0035891347	-0.04623077	-0.01941518	-0.024830258	0.032869585	-0.00924027	0.013264344	-0.093250506	0.01774565	-0.16058618	0.06083388	0.054757845	0.03960172	-0.03729593	0.031213632	-0.06290672	-0.020393288	-0.022536835	-0.04691445	0.04668016	0.00057944894	0.04887955	0.010450739	-0.056684576	-0.028523073	0.05909938	0.006278196	-0.09601754	-0.08978904	-0.13176523	0.06758313	-0.116636634	-0.057316095	0.039991517	0.033039995	-0.0111708315	-0.1343104	-0.0010854133	0.046240285	0.036292147	0.06949609	-0.04938192	-0.09039117	-0.022007657	-0.078896835	0.04882301	0.049285676	0.033748217	-0.08163841	0.07669888	0.03218162	0.10674876	0.0009561697	-0.018517409	-0.13399847	0.096943684	0.02503911	0.027398253	-0.11781546	0.052662212	-0.05526578	0.014361313	0.035524208	-0.07776838	0.081844784	0.044449702	0.10793452	0.013497318	-0.08812146	0.026070708	-0.03179206	0.0017452891	-0.035632126	0.080546804	-0.016107287	-0.01230883	-0.031123875	0.08154355	0.1572117	0.046612073	0.07016342	0.057057798	-0.05900368	0.08203799	0.12267096	0.032179363	0.024679137	-0.045041308	0.02334407	-0.0030754572
Q43	0.16411264	-0.31161028	0.14666483	0.47875473	-0.059594803	-0.1088851	0.23835641	0.083799556	0.23990177	-0.20044646	-0.108138174	0.026761262	-0.06578298	-0.01402111	0.19749063	-0.07664756	-0.16873178	-0.50618017	-0.07731454	0.012249026	0.08859779	0.25453135	-0.04460291	-0.47672915	0.3487696	-0.50327915	0.14797446	-0.49426314	-0.25682047	0.5323774	-0.39223626	0.22526635	0.5153097	0.07781819	-0.3039776	0.32543692	0.06301575	-0.6102146	-0.4052606	-0.53588074	0.3778175	-0.32776603	-0.31795642	0.199593	0.26965186	-0.14859591	-0.23962812	0.068122186	0.06303418	0.07075552	0.17564015	-0.32091764	-0.22423896	-0.18908899	-0.3640507	0.3983288	0.19430302	0.12686327	0.025949256	0.4582782	0.26071906	0.28013143	0.014359639	-0.27873078	-0.7660739	0.3685643	-0.32237878	0.22676608	-0.26644135	0.027799575	0.2819443	0.2407967	0.024668762	-0.25322688	0.5609435	0.22512795	0.3507176	-0.19886938	-0.3699366	-0.08236495	-0.09577887	0.20896634	-0.092064776	0.52620864	-0.25641888	0.053288102	0.23642737	0.11130392	0.26186675	0.017921062	0.30774376	0.03277506	-0.45666978	0.34326783	-0.12592776	-0.08393343	0.23980817	-0.059966996	0.21213427	0.035396457
Q46	-0.04967776	0.081192866	0.076900475	0.10539736	0.009122226	-0.13680029	0.0288156	0.18818472	-0.06037015	-0.07133288	-0.024817728	-0.06042832	-0.07202921	0.028247254	0.05415953	-0.058109444	0.010579332	-0.11957862	0.008434341	-0.13780725	0.0712342	0.0734692	0.038748253	-0.03096698	0.04990339	-0.05935672	-0.01798646	-0.06930687	-0.076719575	0.08955277	0.017607613	0.045642786	0.0749556	-0.08621199	-0.040146653	0.06602046	-0.001633413	-0.12505338	-0.09998776	-0.19168188	0.047109228	-0.14128634	-0.033232447	-0.005757677	0.016443813	-0.032177944	-0.11602275	0.021964196	0.057703987	0.09108068	0.03962926	-0.1011614	-0.057057533	-0.011554191	-0.08856352	0.07370652	0.067078754	0.014110159	-0.07386094	0.09216408	0.004455676	0.08965013	-0.016229374	-0.059993573	-0.18453123	0.14000785	0.02329203	0.06817607	-0.14808734	0.04766	-0.011811799	0.06096454	0.056986608	-0.07864956	0.1193775	0.06478885	0.07672058	0.013113382	-0.115406446	0.017817533	-0.048034534	0.030850695	-0.048458267	0.15356596	-0.0058372687	-0.016012605	-0.009880025	0.07547444	0.16139969	0.06660715	0.12841646	0.042539403	-0.027115492	0.0869945	0.11814292	0.09666489	0.035136957	-0.079576574	0.027409188	0.030248163
Q47	-0.043979343	0.109520175	0.07408382	0.13925926	0.02796645	-0.17418186	0.043463897	0.2246334	-0.07598286	-0.10693099	-0.02612056	-0.080199264	-0.049313918	0.016881615	0.07356959	-0.0568617	0.020374436	-0.15640937	-0.0012808836	-0.1837557	0.07582578	0.06829471	0.052372918	-0.06331318	0.0653402	-0.095206924	-0.004633214	-0.0701248	-0.1053166	0.11348584	0.02163528	0.0508469	0.06661305	-0.060477015	-0.05756746	0.10916148	0.024200087	-0.1636945	-0.15769538	-0.21194747	0.0623121	-0.15679336	-0.05507597	0.011713119	0.052282963	-0.022149859	-0.13463601	-0.004655912	0.055927422	0.08651388	0.08781452	-0.1122028	-0.09750597	-0.03209683	-0.11707804	0.078534976	0.098163165	0.05601745	-0.09904422	0.10826089	0.020775188	0.12124547	-0.030556452	-0.06308376	-0.22085427	0.17696789	-0.0047140326	0.06749105	-0.19513759	0.06229319	-0.0486155	0.063766286	0.06787245	-0.099186204	0.12266055	0.062215872	0.08843621	0.010501327	-0.14614598	0.019455267	-0.05901961	0.021064583	-0.067322135	0.1635841	-0.022524942	-0.027680358	-0.030202348	0.07968195	0.20557937	0.079536445	0.10890408	0.058288086	-0.05734493	0.118978605	0.13274994	0.07544346	0.070857406	-0.09446525	0.061016794	0.024003299
Q48	-0.031734597	0.23323932	0.109685205	0.22193281	0.03399585	-0.18510427	0.08567855	0.2694078	-0.07073292	-0.16054766	-0.0133648	-0.055981815	-0.008139902	-0.061424	0.070211306	-0.034733586	0.004902128	-0.2335537	0.004898894	-0.3058571	0.11326942	0.10750944	0.06894768	-0.09331302	0.08539982	-0.15344825	-0.02417599	-0.101948	-0.11866145	0.11432043	-0.031370696	0.12231383	0.041225173	-0.07846883	-0.07797495	0.1287955	-0.0020622169	-0.19526488	-0.20087749	-0.2628096	0.18366528	-0.22050884	-0.15096386	0.12250127	0.08527968	-0.051867448	-0.25322887	0.009791764	0.049498327	0.06003732	0.11116594	-0.15179975	-0.18102199	-0.08436045	-0.18619181	0.15652035	0.095099755	0.04640974	-0.13583323	0.20019689	0.07362388	0.22070833	-0.019226871	-0.0063451603	-0.30378377	0.209976	0.01722479	0.05824324	-0.24787645	0.06577843	-0.09626247	0.032515496	0.0286237	-0.16894163	0.17538574	0.095215976	0.20607764	0.029089151	-0.17794465	0.03330037	-0.04319498	0.04267207	-0.076820984	0.1958031	-0.05940035	-0.028583227	-0.036339685	0.13519871	0.2948106	0.08541347	0.12411834	0.08821892	-0.14869884	0.18918358	0.18059011	0.043448344	0.07049516	-0.05909086	0.05412992	0.010406765
Q49	-0.054377005	0.20968807	0.08431373	0.11503328	0.057519007	-0.12964287	0.019008016	0.18111075	-0.107410066	-0.07655361	-0.01164109	-0.05694954	-0.050123375	-0.040959563	0.025553195	-0.03213863	0.0063064103	-0.11652935	0.026920367	-0.2628176	0.09843219	0.060508173	0.044140957	-0.007220285	0.05445699	-0.07773073	-0.037316825	-0.026411928	-0.08575169	0.061247826	0.028783953	0.06796063	0.014807966	-0.116895914	-0.008124351	0.10292852	0.009315988	-0.106295645	-0.11743166	-0.18053246	0.08797512	-0.16137342	-0.05072641	0.02631474	0.040523697	-0.043940254	-0.13982566	-0.013124307	0.07069105	0.096117854	0.101468034	-0.11730861	-0.09094886	-0.02152829	-0.08671759	0.093359694	0.064631425	0.0282641	-0.108314775	0.13683689	0.017349293	0.11263831	-0.0027060048	-0.0032309717	-0.22037382	0.15309748	0.07129487	0.051413313	-0.12417335	0.100977935	-0.05104006	-0.0015028229	0.042328153	-0.076674424	0.13332981	0.028804205	0.11041103	0.0123093985	-0.11424644	0.03897145	-0.07486888	-0.03365538	-0.08129231	0.12374621	-0.020392368	-0.007936922	-0.03343787	0.08047755	0.20987101	0.08110845	0.10994673	0.06473667	-0.049582858	0.061957687	0.16290139	0.10692173	0.03393252	-0.101402864	-0.022172207	0.02403171
Q61	-0.070290245	0.21042486	0.10868205	0.14187348	0.08226645	-0.17505738	0.04243843	0.20380135	-0.09047469	-0.04583349	0.02564491	-0.07081486	-0.066291235	-0.0424344	0.056853577	-0.04797849	0.0053839614	-0.1739953	-0.004719148	-0.26308748	0.13699968	0.07648845	0.05151036	-0.02889563	0.05955556	-0.119412936	-0.027760718	-0.10822446	-0.103598826	0.063157305	0.027136028	0.06658837	0.057723995	-0.11937542	-0.020461326	0.13119261	0.049339052	-0.14918241	-0.11621041	-0.22293656	0.09068063	-0.24765047	-0.046788804	0.023370294	0.03394534	-0.051146593	-0.16102	0.043357942	0.066488534	0.16530658	0.10581099	-0.17738414	-0.12252738	-0.020632679	-0.12198789	0.1323899	0.112605795	0.0045263856	-0.13863312	0.16553715	0.03361631	0.13964862	-0.028131973	0.013852126	-0.27230603	0.2009774	0.07855671	0.08473394	-0.14042841	0.11835014	-0.03817223	-0.005012187	0.06544313	-0.12620687	0.17234153	0.07538129	0.115033895	0.024992732	-0.16747056	0.03432638	-0.096017495	-0.039588053	-0.08349604	0.17122859	-0.02145932	-0.0086639	-0.023415985	0.07560064	0.21817335	0.11117959	0.17747217	0.06167508	-0.07509703	0.06405281	0.20645976	0.17566676	-0.012357695	-0.13719797	-0.02623536	0.045871206
Q62	-0.012950019	0.07318733	0.12283091	0.24446924	-0.00080612104	-0.18955034	0.11268066	0.26810148	-0.03503885	-0.15946974	-0.019784933	-0.10359589	-0.040578093	0.022206709	0.06953154	-0.08406107	-0.00015169883	-0.22275081	-0.036394592	-0.23805034	0.13361079	0.11093904	0.024499726	-0.10795832	0.0989968	-0.16963248	-0.041058213	-0.19800918	-0.1405522	0.18610865	-0.07378313	0.13343614	0.18350546	-0.08125118	-0.075542144	0.15997373	0.0019240866	-0.20839427	-0.20530586	-0.31303465	0.15625855	-0.2861376	-0.15621646	0.09093473	0.088278376	-0.084934495	-0.21031657	0.05714501	0.07693805	0.16039452	0.10133629	-0.24252906	-0.14236207	-0.0820933	-0.2393371	0.21511796	0.065443955	-0.008889974	-0.1092497	0.21543477	0.056302365	0.18215156	0.011996567	-0.06119394	-0.37495464	0.31215099	0.03146091	0.122799024	-0.22028613	0.09465392	0.002161839	0.112306505	0.03534046	-0.16509467	0.2604479	0.18631287	0.17440319	0.035293635	-0.20281002	0.06557231	-0.1010578	0.06809169	-0.09790443	0.292289	-0.060549796	0.016613794	0.04180419	0.07206542	0.20830552	0.10469539	0.23804541	0.070877194	-0.128155	0.20476365	0.15443732	0.08661705	0.052693043	-0.11498834	0.04631106	0.06550627
Q67	-0.051527996	0.01995666	0.13760385	0.23205468	-0.1316715	-0.3110888	0.11581591	0.43054622	-0.022266071	-0.19507433	-0.044381846	-0.087942496	-0.1727252	0.12608254	0.13354945	-0.14530064	-0.03316338	-0.3334122	-0.02573611	-0.09818109	0.014852672	0.28835168	0.060281355	-0.19270721	0.0020886937	-0.12432486	-0.09262774	-0.27521774	-0.097988054	0.19854441	0.011628027	0.056527555	0.22579032	-0.11457253	-0.11655403	0.07575014	-0.06381316	-0.27573624	-0.2908299	-0.35087526	0.087728515	-0.23005886	-0.10962798	0.0027793052	0.08003782	-0.077327095	-0.30573404	0.07451465	0.08241499	0.10322562	-0.074248955	-0.21820515	-0.067122415	-0.0589159	-0.23396729	0.18453212	0.10692049	-0.032349914	-0.08838524	0.1411328	-0.015934763	0.2058464	-0.09236682	-0.16148145	-0.26726946	0.30958438	-0.16007215	0.17713459	-0.34518784	-0.049588945	0.08175555	0.28111997	0.1507102	-0.18467921	0.34560522	0.113550805	0.13253166	0.007314891	-0.24207982	-0.0014936475	-0.0872649	0.13903783	-0.0022884915	0.41860297	0.07693584	-0.029131135	0.046346907	0.20893513	0.22948502	0.14967597	0.23966283	0.013694128	-0.027342375	0.33392534	0.21125066	0.18095395	0.14966044	-0.09274759	0.16288783	0.098366775
Q3867	-0.011519658	-0.025925552	0.14956182	0.27441835	-0.11824898	-0.24188781	0.17875299	0.34734708	0.04756877	-0.22203425	-0.0454868	-0.1024931	-0.097260356	0.09531876	0.10856083	-0.13008717	-0.0072429935	-0.33280748	-0.04640826	-0.13054416	0.05569511	0.24981487	-0.020365143	-0.21495634	0.055945504	-0.18878417	-0.049341533	-0.35239613	-0.12160374	0.26903498	-0.0715374	0.10840672	0.26736724	-0.07036604	-0.17106718	0.14987116	-0.021627257	-0.3054768	-0.33732045	-0.38346362	0.16660422	-0.26007336	-0.18607406	0.030105207	0.15837045	-0.09608028	-0.26591703	0.035354845	0.04761862	0.09574959	0.024027184	-0.28560695	-0.12443264	-0.07825499	-0.32389838	0.26147458	0.11025031	-0.016028104	-0.0864207	0.18237835	-0.002716394	0.2179188	-0.026003288	-0.16454557	-0.3751311	0.34548366	-0.16921544	0.17897479	-0.3453165	-0.020026045	0.07798636	0.3065507	0.13588877	-0.19341663	0.35942304	0.13635944	0.12914138	0.012690519	-0.25207376	0.04332971	-0.08313251	0.15772046	-0.03015237	0.45417777	0.0001267631	-0.015134375	0.09870796	0.16056417	0.21087842	0.111312255	0.26704738	0.053779427	-0.12105359	0.36179468	0.17125538	0.062018767	0.17593436	-0.06694086	0.17075919	0.05460541
Q10355	-0.005255555	0.13395773	0.06810968	0.10391052	0.05342603	-0.056016263	0.061001226	0.07292814	-0.046396203	-0.034390327	0.005480323	-0.022214089	0.0151945315	-0.060477585	0.041014753	-0.012361273	-0.008234973	-0.1307574	0.0014900407	-0.14658147	0.07239696	0.04719179	0.003248974	-0.051248	0.021665303	-0.104888886	-0.017155288	-0.087915815	-0.04648312	0.02023044	0.011093856	0.033607706	0.011232059	-0.060164757	-0.024227906	0.09464509	0.034313716	-0.05610781	-0.067078315	-0.090796314	0.11619406	-0.1641285	-0.059022784	0.07024008	0.044630494	-0.05196832	-0.08881833	0.025875308	0.0002903982	0.07704108	0.06978507	-0.11391589	-0.096550904	-0.033051234	-0.10652241	0.120759785	0.040219147	0.0130320145	-0.07280136	0.112711325	0.050249893	0.121852025	-0.023787318	0.0657447	-0.16342905	0.121196836	0.02781725	0.04043288	-0.06921313	0.04612113	-0.024442587	-0.011357183	0.024020629	-0.08879431	0.13834892	0.050557166	0.08033952	0.00924664	-0.08021873	0.029177433	-0.05323683	-0.010272261	-0.05271578	0.09232153	-0.019455526	0.0016525763	-0.0010049371	0.053084295	0.13287342	0.052234173	0.07838002	0.043694414	-0.06059081	0.05762624	0.12514159	0.061397962	-0.0070488304	-0.05122527	-0.034134936	0.015916454
Q4018	-0.022722092	0.13244218	0.06498645	0.12176071	0.02600077	-0.085549876	0.028729822	0.11527288	-0.05101745	-0.07616872	-0.012517269	-0.053531133	0.007166988	-0.018021306	0.019715758	-0.023980211	0.027433094	-0.10197378	-0.0120639885	-0.19060594	0.06625442	0.041034292	-0.0021971872	-0.04296003	0.04274115	-0.08640493	-0.04123852	-0.049901266	-0.05930999	0.068871215	0.0053904327	0.028526576	0.014437751	-0.063241035	-0.047629256	0.09618245	0.036068596	-0.053391933	-0.09430216	-0.118271515	0.10225729	-0.14833617	-0.07931161	0.07618635	0.044629302	-0.022311168	-0.09140761	0.008915324	0.040510938	0.065506645	0.09133922	-0.10487305	-0.092741095	-0.03717833	-0.1313228	0.1094777	0.050246336	0.022370791	-0.0637914	0.087907165	0.015747089	0.08234344	0.036702786	0.004170761	-0.1873099	0.1467342	0.042390343	0.0424888	-0.10454517	0.06150602	-0.026128003	0.008496815	0.036115564	-0.07938669	0.10810074	0.048634123	0.07948304	0.040845525	-0.07828856	0.035529647	-0.07359643	-0.0002104665	-0.06383707	0.09485328	-0.029835986	-0.013512506	-0.0134757	0.047589168	0.13002953	0.047599904	0.08577639	0.061968353	-0.05231901	0.07245955	0.12436849	0.022618607	0.029773436	-0.056773935	-0.002383481	0.012485273
Q6910	-0.023477532	0.14470169	0.11625426	0.18238936	-0.020009331	-0.18291534	0.0766391	0.26763073	-0.058281027	-0.13256195	-0.033957332	-0.060547892	-0.052542713	0.0004231191	0.09531034	-0.06836423	-0.0076654674	-0.24392661	0.011569746	-0.17144787	0.05968548	0.17496318	0.041113444	-0.12880512	0.050308987	-0.10645141	-0.02314661	-0.14583535	-0.09345774	0.110679224	0.0028061934	0.06947404	0.073203675	-0.08193495	-0.073956214	0.09707568	-0.01915161	-0.22186653	-0.22606564	-0.23228829	0.1444182	-0.18127231	-0.10257963	0.0541271	0.10270578	-0.04922985	-0.2218633	0.004485272	0.029728018	0.032463975	0.040120233	-0.13966332	-0.11927363	-0.066558905	-0.18458672	0.13301514	0.09476457	0.040568937	-0.103216775	0.14243889	0.033195503	0.20766446	-0.08323884	-0.0647386	-0.23824409	0.17746283	-0.07809556	0.086128466	-0.23319307	0.011464661	-0.035149645	0.10241	0.08611025	-0.14557289	0.21741465	0.07288579	0.13974525	0.025570758	-0.1698285	0.0051057003	-0.053185113	0.084096484	-0.024112962	0.22831081	-0.018140284	-0.011746334	0.012688846	0.14418308	0.24569412	0.07505364	0.13287891	0.058447402	-0.091946594	0.21609814	0.17826307	0.066306345	0.12500457	-0.03368249	0.09972252	0.017355869
Q3102	-0.043264657	0.16704357	0.078920394	0.11111022	0.026096893	-0.15706655	0.021087565	0.21416625	-0.10195235	-0.085237496	-0.01623785	-0.04946525	-0.04717238	-0.019759681	0.07180682	-0.043935277	0.012226281	-0.15297447	0.019105835	-0.18473043	0.044628266	0.08685001	0.06355289	-0.053068243	0.039677724	-0.08083602	-0.012860434	-0.04755606	-0.07822597	0.058980197	0.036506157	0.016209586	0.008666034	-0.08353293	-0.031097401	0.072716594	0.019971855	-0.13703565	-0.13575242	-0.1654432	0.06897779	-0.15705316	-0.042580605	0.024542825	0.04643716	-0.02478155	-0.1622279	0.003680432	0.04842918	0.07372266	0.04554149	-0.086246915	-0.08465265	-0.039965216	-0.09705153	0.059620112	0.08045849	0.0576099	-0.104860775	0.10520253	0.034131434	0.1418252	-0.061925676	-0.015263993	-0.16327584	0.12601167	-0.0112428535	0.05852334	-0.15980439	0.039542094	-0.04370189	0.0323089	0.08195564	-0.09218843	0.13538842	0.020902852	0.104022026	0.018190015	-0.12938629	0.011614844	-0.04918357	-0.007667678	-0.052714832	0.14117195	0.003422919	-0.0249497	-0.042607117	0.11113377	0.22892682	0.08018284	0.07717002	0.054577116	-0.03744181	0.09409908	0.18067886	0.09647407	0.051868625	-0.079908416	0.042903055	-0.007158142
Q3873	-0.0009455009	0.1248697	0.13107958	0.20847929	-0.013356268	-0.17610963	0.08482318	0.27318087	-0.053394727	-0.15488613	-0.02536089	-0.06142848	-0.010979856	-0.0067199212	0.09332495	-0.059125517	-0.01780938	-0.25939217	0.01971543	-0.17718945	0.057514805	0.1441508	0.053321596	-0.14248759	0.059168246	-0.10880579	-0.012414803	-0.1173191	-0.09262322	0.122017145	-0.040667865	0.093877174	0.07690264	-0.07659024	-0.095429935	0.088836566	-0.01437544	-0.22753723	-0.23197609	-0.2398963	0.18079452	-0.17854834	-0.12154121	0.093319185	0.12943472	-0.07024143	-0.24558958	0.010994575	0.03667191	0.04500512	0.054413002	-0.1596691	-0.12655772	-0.09857955	-0.19921741	0.1494521	0.064001866	0.061047357	-0.10139068	0.16947645	0.08828789	0.21296354	-0.06604177	-0.040202945	-0.25091943	0.18626535	-0.08358092	0.10198179	-0.23336524	-0.0033351039	-0.013466434	0.092866085	0.05013885	-0.16487782	0.22314015	0.087163895	0.18004774	0.021905137	-0.17471494	0.004379513	-0.052853696	0.08316756	-0.038490623	0.23540014	-0.036495827	-0.0024555929	0.013414924	0.17480503	0.25236112	0.08409951	0.136972	0.062637806	-0.11752022	0.21206117	0.17238888	0.047828037	0.10925937	-0.032093085	0.10331797	0.0057412772
Q11668	-0.11087202	0.18054105	0.08864633	0.14434811	0.047043666	-0.30765933	0.015867004	0.4319505	-0.21975861	-0.24336922	-0.043803126	-0.193547	-0.12424036	0.13396737	0.07610617	-0.072882056	0.13092849	-0.12718174	0.06260925	-0.3941859	0.06663568	0.031123513	0.069846995	-0.06680083	0.10575231	-0.102613464	-0.07207401	-0.020746304	-0.18323483	0.1750094	0.116666116	0.033647824	0.07242745	-0.07342758	-0.078053564	0.15788943	0.10703601	-0.19640455	-0.23691542	-0.3399558	0.0025968007	-0.24996006	-0.03908962	-0.028582951	0.03805916	0.08381979	-0.1336207	-0.05084989	0.09697128	0.1449687	0.1502635	-0.11291766	-0.11223427	0.047426023	-0.19284733	0.0049746875	0.16688302	0.07516371	-0.117003836	0.016515866	-0.07324419	0.09179775	0.09033036	-0.21667786	-0.34424174	0.30728376	0.06985251	0.10993242	-0.35926422	0.15541856	-0.09619549	0.19458447	0.2324591	-0.08057489	0.08419268	0.105594195	0.053179454	0.07045329	-0.17028315	0.08927423	-0.102447204	-0.029693004	-0.16882393	0.23944551	0.020178858	-0.10751653	-0.111430146	0.05280637	0.3033431	0.086332105	0.1379163	0.116791144	-0.003349634	0.15686634	0.25775328	0.054008078	0.14540124	-0.17216536	0.11928721	0.009495952
Q5290	-0.076499104	0.23898241	0.080371894	0.13551903	0.083146736	-0.16275473	0.018998273	0.30028707	-0.1839874	-0.1667656	-0.033477347	-0.14170544	-0.033585057	0.04865616	0.007395311	-0.024000179	0.1229977	-0.06942066	0.03153676	-0.40449077	0.12278122	-0.009446195	0.015869267	-0.009534565	0.054667894	-0.114823736	-0.103758514	0.011678857	-0.14359495	0.10289059	0.06264342	0.04426695	-0.020479623	-0.10694958	-0.04254459	0.15391225	0.0634876	-0.08458323	-0.13472812	-0.23063216	0.09535857	-0.2328734	-0.073638305	0.060204573	0.044720054	0.01035821	-0.10355064	-0.04591212	0.09483205	0.13298853	0.15947951	-0.1380984	-0.11663484	-0.015363762	-0.18465078	0.07001992	0.08389238	0.04604205	-0.10989569	0.093958184	-0.030636286	0.073437266	0.11574108	-0.032565594	-0.31562233	0.27876005	0.1274507	0.099337116	-0.24060781	0.16569848	-0.07407637	0.068206124	0.11454287	-0.09048553	0.12341358	0.07629305	0.07460279	0.07158943	-0.11371554	0.10743396	-0.10929848	-0.07061328	-0.17223163	0.15096565	-0.029211191	-0.07580922	-0.046568934	0.033269145	0.23527212	0.056589633	0.14203969	0.11743755	-0.02521691	0.07640709	0.24008311	0.043508887	0.07591904	-0.16832912	0.005927978	-0.008072369
Q7712	-0.029248714	0.18319178	0.1293945	0.16079237	0.017838271	-0.17948496	0.051799644	0.24871226	-0.11384752	-0.12098287	-0.033470545	-0.06776377	-0.037199836	-0.013255439	0.09949168	-0.038625583	0.013685715	-0.2056478	0.02969735	-0.20546302	0.048428267	0.13462994	0.046401136	-0.11902122	0.030308127	-0.10480527	-0.059293292	-0.06426969	-0.089829706	0.06157396	0.035856463	0.02900854	0.012912265	-0.088710725	-0.045452252	0.1083287	0.030708615	-0.15294617	-0.19193232	-0.18645838	0.14123045	-0.20328799	-0.0860852	0.08082959	0.10149197	-0.04123814	-0.20055176	0.04014505	0.016049935	0.077916734	0.04835452	-0.14535141	-0.09736156	-0.037880007	-0.19794893	0.08871821	0.08867362	0.07312215	-0.11419647	0.112791054	0.05296743	0.20168924	-0.094384894	-0.004897296	-0.18321668	0.1790114	-0.059266675	0.07326301	-0.18820138	0.023611346	0.0012035475	0.06571439	0.11932998	-0.14006013	0.23142566	0.041605443	0.14231227	0.039636742	-0.13466197	0.011206295	-0.07670998	0.032627024	-0.06432125	0.21002512	-0.0032533223	-0.024698313	-0.008200072	0.14728542	0.24810797	0.08877253	0.12773526	0.07188117	-0.065572254	0.15842764	0.21063723	0.099770315	0.101791896	-0.064012446	0.04710214	-0.0011611182
Q6352	-0.071127385	0.18885514	0.075199425	0.078541145	0.08706414	-0.13824525	0.004659105	0.16593377	-0.12909223	-0.0263399	0.005462614	-0.06849285	-0.05963352	-0.03760021	0.050935674	-0.023327561	0.024027264	-0.10218194	0.011351193	-0.22823484	0.07888016	0.048731435	0.030705826	0.0057459865	0.033211663	-0.07225758	-0.02994945	-0.043709524	-0.086634494	0.017488886	0.08809577	0.022174917	-0.0056989123	-0.11656012	0.015069936	0.11948017	0.06289005	-0.09701101	-0.08666557	-0.14444786	0.05007484	-0.19386242	0.011754217	-0.0013368928	0.01160418	-0.024897048	-0.103751525	0.03164111	0.040289626	0.13098393	0.08648385	-0.11136336	-0.08193077	0.010170844	-0.079526134	0.043770455	0.100386836	0.01999562	-0.094823465	0.08545422	0.025752708	0.08759219	-0.032160122	0.018256975	-0.17918053	0.11719794	0.08009552	0.068506755	-0.09374652	0.09358405	-0.03179352	-0.014992425	0.083117805	-0.06682489	0.14300174	0.015677897	0.042819116	0.037515715	-0.11464682	0.021484058	-0.085224144	-0.062883414	-0.10089997	0.097341575	0.0027979838	-0.013283151	-0.037296377	0.04503941	0.18282601	0.08276176	0.10710037	0.06424408	-0.011156167	0.012307309	0.19717506	0.14906105	0.000659315	-0.13040744	-0.04163936	0.023557782
Q79	-0.053666487	0.2275006	0.08667336	0.15779851	0.046971284	-0.16485704	0.035290934	0.23176059	-0.09236505	-0.09758597	-0.015366743	-0.048953325	-0.01666914	-0.050165627	0.054822795	-0.03278516	0.010062899	-0.17839716	0.021453356	-0.2495346	0.08052053	0.10073337	0.043748926	-0.06788942	0.061652217	-0.09715175	-0.026793368	-0.057626512	-0.08568322	0.07639873	0.012624546	0.068283066	0.0014243287	-0.10491739	-0.04505806	0.09336227	0.008287003	-0.13927692	-0.14197083	-0.19242252	0.13679583	-0.19140062	-0.09088532	0.0706251	0.06559367	-0.03761764	-0.20271063	-0.003861527	0.045964684	0.062315483	0.09861885	-0.12650244	-0.14501758	-0.053169925	-0.14609313	0.118172966	0.066403806	0.047575902	-0.12781361	0.15333161	0.04071543	0.16080754	-0.04815838	-0.009601254	-0.2260125	0.15652667	0.03189347	0.05184351	-0.18572618	0.06504547	-0.07375335	0.0032717835	0.05704269	-0.12905204	0.15105735	0.06505147	0.15700668	0.029624444	-0.12696147	0.023996195	-0.052892856	0.0048840325	-0.0696088	0.1473577	-0.028818125	-0.013244806	-0.03216849	0.1424863	0.25386614	0.07282227	0.11343707	0.06252505	-0.08008182	0.12892002	0.17861433	0.08956966	0.05915133	-0.064882964	0.02853133	0.010245876
Q80	-0.11024347	0.19287795	0.039307743	0.35811973	-0.08241205	-0.3960884	0.11921611	0.53532016	-0.2425243	-0.44301942	-0.17203593	-0.1765176	-0.0026504714	0.14803588	0.1327471	0.015883954	0.25238872	-0.08653514	0.09516482	-0.3182399	-0.04854401	0.0010282835	0.13481662	-0.2171041	0.18114735	-0.17651677	-0.25018185	0.14674662	-0.15204474	0.27392587	-0.017586749	0.15969986	0.07345679	0.0133816525	-0.13299327	0.16443777	0.027629685	-0.20412885	-0.24117687	-0.39799467	0.15998287	-0.2997496	-0.26974386	0.2828329	0.10258828	0.16711128	-0.39964965	-0.08401226	0.034044053	-0.04106671	0.21782553	-0.12459484	-0.1433861	-0.06454071	-0.47142735	0.119839594	0.10354231	0.09480755	-0.04197311	0.023187479	-0.0025075027	0.13717428	0.24251848	-0.2687803	-0.3037562	0.5138701	-0.01274309	0.1155858	-0.5599878	-0.07874173	-0.21596847	0.38068196	0.20091783	-0.1712555	-0.0003357007	0.38947308	0.30731732	0.019681824	-0.122256294	0.11451343	-0.0650951	0.26394942	-0.14696681	0.32916757	-0.023314465	-0.19417281	-0.30765885	0.25230104	0.2817415	0.058310848	0.19485073	0.18548833	-0.083920464	0.42241058	0.09506598	-0.27550426	0.23305114	0.002635014	0.34096172	-0.039548937
Q81	-0.07023516	-0.13119869	-0.037734866	0.68452847	0.14345881	0.08903692	0.41337103	-0.048603978	-0.16495492	-0.16292691	-0.47973177	-0.09587953	0.35389364	-0.015484062	-0.010831699	-0.13291036	0.0013265185	-0.2420086	-0.4064805	-0.45090297	0.39838007	-0.18463169	0.012080682	-0.15840405	0.30498078	-0.6489165	-0.07259765	-0.0017614854	-0.32850274	0.9704888	-0.33099207	0.27052864	0.42002445	-0.19335411	-0.3943366	0.50231606	0.16194963	-0.06361113	-0.08681373	-0.29079536	0.2396623	-0.66466576	-0.55288756	0.46260768	0.1320952	0.13779281	0.03378967	0.124106675	0.55096024	0.29421887	0.60516584	-0.21445122	-0.060091626	-0.3946407	-0.48887557	0.50139236	0.012822335	0.21010286	-0.18476684	0.46427402	0.0656882	-0.0072741467	0.15533255	-0.14191821	-0.92899334	0.76252824	0.27680415	0.1652452	-0.32281452	0.2820481	0.117097616	0.06389547	-0.091946095	-0.5712217	0.22520535	0.33631742	0.44412553	0.07903828	-0.026654545	0.34970176	-0.440612	-0.12695919	-0.19927986	0.45983145	-0.2878769	-0.10484532	-0.027308362	0.21022558	0.2448737	0.13410679	0.49272874	0.23005618	-0.24684387	0.15451895	-0.3303925	-0.3783873	0.18743384	0.09644849	0.1060134	0.14751032
Q85	-0.17315765	0.09774203	0.08137352	0.1844686	0.0010894132	-0.40993422	0.0025635592	0.5210052	-0.20460945	-0.27200696	-0.03131027	-0.21773078	-0.20102008	0.18621919	0.073213354	-0.13837503	0.1322522	-0.100462124	0.02307009	-0.3900132	0.13064909	-0.017537301	0.15090677	0.016101876	0.15816854	-0.0912849	-0.047330953	-0.013232431	-0.21176507	0.33122173	0.04155995	0.10681848	0.24270932	-0.111114785	-0.10412121	0.15382458	0.028409734	-0.30031255	-0.24232921	-0.52921975	-0.10771729	-0.18690783	-0.04114724	-0.1251389	-0.07776484	0.11449351	-0.12938888	-0.08691786	0.1938949	0.19399537	0.14672269	-0.11751858	-0.10346833	0.06710962	-0.105604716	-0.04117021	0.19967143	0.020052163	-0.077767566	0.0768941	-0.13507985	0.04041147	0.17238815	-0.3655779	-0.4457771	0.37570825	0.11696801	0.14848147	-0.46663612	0.21016954	-0.14380047	0.25063667	0.20395939	-0.055075772	-0.008491353	0.19039784	0.037754215	0.048180655	-0.2484119	0.12195221	-0.119525254	0.03520476	-0.17335635	0.2790533	0.0026107053	-0.12422193	-0.14571087	0.025339538	0.2984803	0.098242566	0.20087157	0.11364424	0.0004391217	0.17885181	0.18508472	0.066104725	0.09809524	-0.2428161	0.16507909	0.07085479
Q4499	-0.053158827	0.20117271	0.071498685	0.10736622	0.059476864	-0.13479428	0.05264255	0.12625778	-0.081325926	-0.0045744716	0.018866034	-0.03604693	-0.05464361	-0.09056801	0.06763266	-0.04034323	-0.018278351	-0.16641891	-0.010836428	-0.18996525	0.11041877	0.07418684	0.05758416	0.0032055122	0.049221665	-0.100638136	-0.016775027	-0.09931791	-0.06887164	0.029808894	0.022633193	0.05047819	0.030836081	-0.13428608	0.00100924	0.12081672	0.022539694	-0.120562986	-0.05932765	-0.13998397	0.09252311	-0.21585615	-0.024972336	0.020552922	0.012756753	-0.06162973	-0.14308329	0.06337326	0.0472514	0.14808616	0.09376916	-0.13602486	-0.10715392	-0.026088435	-0.06586747	0.11111613	0.08765959	-0.0011512598	-0.13070811	0.16777988	0.06561024	0.14262311	-0.055830706	0.06386118	-0.18902023	0.13847591	0.07389012	0.063020565	-0.096289106	0.07111386	-0.036695518	-0.056739576	0.037319917	-0.1126544	0.1524816	0.050534565	0.07562124	0.0065795234	-0.12849198	0.010268517	-0.076770455	-0.02065272	-0.06830599	0.12202009	-0.022125825	0.0043345983	-0.025163239	0.09989399	0.18766612	0.10592814	0.15007232	0.051224206	-0.051711433	0.03173668	0.15919825	0.17896853	-0.03594919	-0.095429204	-0.05305299	0.04494449
Q9930	-0.04468965	0.20733388	0.07522298	0.10948668	0.04337682	-0.13845658	0.023503296	0.18914525	-0.10762824	-0.08465885	-0.03912689	-0.053341754	-0.013164096	-0.035540618	0.06642659	-0.025289416	0.016410636	-0.14465114	0.039177712	-0.21348703	0.05553537	0.08455145	0.057107106	-0.064283036	0.049381018	-0.08537303	-0.031887002	-0.024474967	-0.086247645	0.03925709	0.024357425	0.02512058	-0.011009793	-0.09012507	-0.048000455	0.08481144	0.009821018	-0.12861061	-0.14793968	-0.16255535	0.10599515	-0.14876828	-0.077764295	0.06397468	0.0677019	-0.015970794	-0.1748212	-0.0045703095	0.045614142	0.046009418	0.08338636	-0.09642499	-0.104421504	-0.044843044	-0.13328044	0.076518096	0.068389535	0.067919634	-0.10804395	0.09907604	0.041580696	0.14700508	-0.052660976	0.0077982303	-0.18667686	0.1326005	-0.0075597893	0.051343597	-0.15788718	0.05744685	-0.060020696	0.017011806	0.06715722	-0.09196904	0.13685139	0.037256725	0.12664488	0.028484719	-0.11082302	0.02373859	-0.05799936	-0.018056488	-0.058370695	0.11647011	-0.018866673	-0.0327319	-0.042563137	0.11485093	0.23145092	0.075686306	0.07372894	0.06399305	-0.07201695	0.093609616	0.16566187	0.064356	0.0536802	-0.04242578	0.032346968	-0.026773216
Q95	-0.04379945	0.29404375	0.14974426	0.182416	0.09294556	-0.15996143	0.07300796	0.20440482	-0.0988811	-0.0392201	0.025998848	-0.039293267	-0.033498526	-0.14122316	0.11630828	-0.038772494	-0.06480641	-0.29225147	0.008192776	-0.26371807	0.12146481	0.13615264	0.042993125	-0.07127835	0.059828807	-0.13821739	-0.016562419	-0.15653473	-0.1105414	0.012041209	0.0011108029	0.06904882	0.020161154	-0.12777308	-0.027332231	0.13214229	0.030624285	-0.21541259	-0.1616192	-0.20536932	0.18288511	-0.26972023	-0.06921794	0.08132758	0.089952774	-0.10664912	-0.24076062	0.0718129	0.030264061	0.14542663	0.08785406	-0.17084295	-0.17085999	-0.058858134	-0.14333345	0.15640691	0.10313424	0.056148272	-0.18999185	0.21686324	0.13098773	0.24248481	-0.14149731	0.087506324	-0.26779374	0.14949583	0.023284072	0.063766636	-0.15261313	0.08208038	-0.055505287	-0.055455323	0.040087514	-0.16792011	0.2727767	0.056238357	0.16435131	0.024272818	-0.19395824	-0.0011715291	-0.077333786	-0.016518442	-0.07601312	0.18581355	-0.04262781	0.022494769	-0.0114826355	0.16158058	0.300753	0.14405562	0.15509713	0.07456638	-0.13227251	0.1047979	0.23627391	0.21137114	-0.018227592	-0.08206174	-0.030132947	0.026504219
Q96	0.0038940576	0.25589725	0.12414516	0.20245215	0.044256765	-0.10097451	0.09118469	0.23329246	-0.10424953	-0.17247823	-0.032197695	-0.06757282	0.04183545	-0.056599867	0.051118564	-0.007260298	0.02185509	-0.21280304	0.03722426	-0.32579556	0.091021016	0.07393472	0.026508782	-0.10987047	0.062698215	-0.14218669	-0.045322504	-0.05626813	-0.10642362	0.07617939	-0.039484642	0.108059846	-0.031879675	-0.07932291	-0.07186059	0.12361808	-0.00023971518	-0.13180433	-0.19678985	-0.19342004	0.24780184	-0.19585714	-0.1743142	0.18932502	0.14665668	-0.05377621	-0.21578677	-0.025946781	0.03735974	0.0265563	0.13636944	-0.13348809	-0.18859838	-0.12328655	-0.24332596	0.16520146	0.037310358	0.08088107	-0.12492038	0.18671279	0.08101033	0.21313587	0.014110452	0.030690541	-0.29465607	0.19856845	0.031202191	0.051968183	-0.22925276	0.08930906	-0.09294035	0.014793541	0.031229489	-0.17110787	0.19727902	0.0837149	0.20994449	0.043159537	-0.13844243	0.0514696	-0.07962772	0.017476534	-0.09660222	0.1505549	-0.07356668	-0.02364541	-0.010264343	0.13667749	0.2779807	0.03661663	0.104095675	0.10280909	-0.14578733	0.18465276	0.20371117	-0.015865786	0.11733852	-0.011667319	0.05227817	-0.036184344
Q97	-0.016309673	0.33366373	0.17204784	0.37482092	0.029462408	0.00018319124	0.20473574	0.15914616	-0.013835166	-0.19418387	-0.028294956	-0.07688494	0.17893012	-0.08528587	-0.089506604	-0.028900908	0.058316972	-0.21162726	-0.13773026	-0.51260257	0.29270014	0.08100503	-0.14688803	-0.06928037	0.077477574	-0.3156671	-0.14077844	-0.18840921	-0.14963219	0.2164361	-0.22337142	0.26674554	0.06635574	-0.23288059	-0.13914499	0.23623475	-0.08529894	-0.06855513	-0.12094755	-0.2748218	0.4323223	-0.38113216	-0.3948429	0.3520501	0.18848856	-0.19525799	-0.2954099	0.0008326724	0.1211401	0.1590474	0.29680005	-0.37069634	-0.3270841	-0.18680614	-0.3947375	0.5232833	-0.07289538	-0.018685395	-0.17975323	0.4406544	0.0069952155	0.29287997	0.15721118	0.10732565	-0.55147874	0.4404563	0.20840816	0.06930066	-0.1413156	0.20060784	-0.07368845	-0.0544717	-0.13571443	-0.28692713	0.3125937	0.19241661	0.32352152	0.08177774	-0.15882877	0.18865049	-0.17220725	0.09500308	-0.057527043	0.2767941	-0.15464266	0.023257993	0.076582804	0.09608651	0.24184315	0.07230277	0.31102446	0.14673695	-0.2359906	0.2507046	0.20992585	-0.058786638	0.014322966	-0.05164034	-0.11398753	0.104364194
Q7140	-0.055057216	0.25343418	0.09710266	0.11402133	0.068248644	-0.15176696	0.045826137	0.17423283	-0.106983446	-0.009913968	-0.0030792707	-0.018751225	-0.041439667	-0.10616902	0.07721869	-0.03439861	-0.03800262	-0.21213233	0.015052061	-0.20824224	0.1038732	0.1129427	0.051485687	-0.024694514	0.03391263	-0.09185171	-0.020455923	-0.078099295	-0.074293815	0.0014494071	0.038220745	0.03406813	-0.0019822922	-0.14497855	-0.015605647	0.10682162	0.007904286	-0.14866231	-0.1145013	-0.1706515	0.12524015	-0.21519946	-0.038353898	0.038669232	0.038026765	-0.0660656	-0.19961318	0.044892482	0.03894494	0.10841539	0.08290406	-0.13588288	-0.122773655	-0.024143893	-0.10201927	0.09184196	0.08806514	0.049973246	-0.15656409	0.16763936	0.094655596	0.17575832	-0.112661526	0.064197056	-0.18577452	0.110986024	0.020242041	0.060190175	-0.11285916	0.06606647	-0.048578955	-0.038965616	0.057913177	-0.1277131	0.20536564	0.029953083	0.1250518	0.011172401	-0.1489668	-0.0009842456	-0.07692497	-0.030226842	-0.06275734	0.14406739	-0.01545528	-0.0025354994	-0.03292527	0.14844035	0.25397834	0.13493182	0.13518044	0.06762859	-0.08550299	0.06183111	0.21127966	0.19245344	-0.015263472	-0.07715105	-0.015777491	0.014983597
Q98	0.061222233	0.38075635	0.19475916	0.2902578	0.119394965	-0.10249596	0.2557136	0.04484974	-0.023100639	0.034335665	0.08936187	0.048456043	0.080361806	-0.3371618	0.14031483	-0.03651347	-0.20466779	-0.5292393	-0.083278604	-0.2632409	0.18743737	0.19294956	0.028445598	-0.12605092	0.057729248	-0.26306987	0.06429656	-0.36538503	-0.08923706	-0.050739277	-0.10926855	0.15409863	0.06411611	-0.13534702	-0.04667027	0.19182366	0.011635796	-0.25911453	-0.14480445	-0.18242213	0.3907928	-0.4589086	-0.16704102	0.24451081	0.14199767	-0.18036824	-0.36369795	0.21428706	-0.045072727	0.18745922	0.1617156	-0.24266516	-0.27212566	-0.17246248	-0.20971562	0.37086275	0.09665855	0.05482439	-0.25110134	0.3841102	0.3228358	0.44110367	-0.28482753	0.3133548	-0.33138263	0.13247746	0.01287403	0.041610204	-0.10339071	0.034696147	-0.090925656	-0.2036708	-0.07622302	-0.35073873	0.43581685	0.09876792	0.2947437	0.01090426	-0.2081667	-0.053220857	-0.046980057	-0.01036386	-0.05567312	0.23457514	-0.15064436	0.077592716	0.030749818	0.27209577	0.37494567	0.20288017	0.20822811	0.09351908	-0.304348	0.15423873	0.2500023	0.2922085	-0.116638884	0.0028297286	-0.09255385	0.02928839
Q99	-0.12464809	-0.032123208	0.09839657	0.22616948	-0.07122407	-0.36347288	0.066299394	0.41589564	-0.06933382	-0.22178702	-0.028553393	-0.19321238	-0.23720294	0.1742078	0.0556571	-0.17910549	0.052436348	-0.18545006	-0.06995908	-0.20570976	0.17611417	0.088292286	0.09931583	-0.04332027	0.13814782	-0.13638447	-0.06533095	-0.1700536	-0.16437344	0.33757105	-0.018402256	0.13969444	0.34282362	-0.14467067	-0.07049344	0.16657174	0.03944651	-0.26879302	-0.18319143	-0.4790288	-0.049499985	-0.26617697	-0.05898973	-0.12295758	-0.034995683	-0.01205555	-0.15413529	0.05538152	0.20262161	0.2693705	0.079508565	-0.2742271	-0.091016516	0.015279114	-0.18868639	0.1595066	0.1479782	-0.07163554	-0.08126	0.18103053	-0.1164235	0.11037701	0.11236919	-0.30370617	-0.43960378	0.42884922	0.08777961	0.18924412	-0.33673367	0.12526745	0.067873366	0.24416837	0.13378792	-0.10575417	0.14880213	0.23542371	0.05757998	0.028411422	-0.2708795	0.10841288	-0.12467181	0.07350951	-0.10680526	0.40994984	0.026222864	-0.0375005	-0.018195625	0.031696934	0.17453685	0.16801475	0.32628572	0.07012315	-0.013638572	0.22597395	0.13490658	0.14352311	0.06922766	-0.24293731	0.124084346	0.15360016
Q102	-0.051798556	0.15206824	0.059810918	0.11574662	0.023662014	-0.16183518	0.03035155	0.1944266	-0.060031783	-0.06713362	-0.008875984	-0.057221707	-0.045256976	-0.021397987	0.029465575	-0.042997748	0.008419979	-0.13371094	-0.0010518248	-0.1986643	0.09601855	0.063702725	0.04475936	-0.01169051	0.06446778	-0.09331443	-0.02626931	-0.060388576	-0.07023549	0.08163159	0.011023201	0.057998035	0.06956365	-0.102729775	-0.035985876	0.08434757	0.0001335516	-0.13040285	-0.10245977	-0.18443826	0.070616044	-0.17089	-0.05266351	0.012330356	0.01839408	-0.031181518	-0.14936182	0.02865574	0.07262239	0.09285012	0.06260909	-0.107019484	-0.09929783	-0.03160642	-0.08945547	0.07701608	0.07071988	-0.004299055	-0.09103835	0.13050748	0.019525668	0.10368884	-0.012610118	-0.02441641	-0.20458929	0.15889764	0.043789487	0.051246006	-0.14456159	0.06771197	-0.026064988	0.022131817	0.045886885	-0.09914357	0.10797703	0.084734954	0.11132586	0.016252048	-0.13109758	0.032752305	-0.05484321	0.016261743	-0.05440819	0.13383858	-0.010639924	-0.016962998	-0.029829696	0.079944804	0.17025456	0.091896944	0.12046031	0.067548536	-0.06000479	0.08536927	0.13287677	0.10651819	0.016030062	-0.08293355	0.023158327	0.03805419
Q6981	-0.057455264	0.22651412	0.10811471	0.1293735	0.07722612	-0.15206471	0.05625139	0.16757679	-0.09665286	-0.050536618	0.018971585	-0.051075697	-0.030508224	-0.074970126	0.050967243	-0.031020036	-0.02666854	-0.20206217	-0.009873377	-0.24522868	0.12209336	0.076339036	0.05826573	-0.018988114	0.05054683	-0.104924396	-0.03458725	-0.08936771	-0.08414894	0.039462205	0.0034432262	0.061334204	0.037380554	-0.11215332	-0.010503544	0.11670607	0.02245796	-0.1364952	-0.11032367	-0.18798696	0.1182572	-0.21794029	-0.05242692	0.05796921	0.036565803	-0.062390897	-0.16847068	0.038999338	0.045681372	0.11462854	0.09847772	-0.1334721	-0.12041215	-0.03716817	-0.12627304	0.12027332	0.08270816	0.032581996	-0.13547127	0.16943699	0.06612512	0.15989396	-0.048489034	0.033920463	-0.2399639	0.14809972	0.055490747	0.051874988	-0.13749357	0.0865599	-0.061460182	-0.033168692	0.049572628	-0.11933022	0.17398666	0.05931644	0.1300999	0.023261325	-0.14195447	0.033432577	-0.07765081	-0.03680638	-0.07107547	0.1305794	-0.03247127	-0.012377806	-0.01680143	0.10246354	0.230736	0.10687777	0.1250376	0.065150775	-0.082673594	0.075624265	0.1915283	0.14945996	-0.009806675	-0.08978886	-0.03129308	0.024072248
Q107	-0.035953008	0.18332388	0.08693211	0.11151098	0.038753383	-0.13046081	0.041917223	0.20732768	-0.086582355	-0.10348538	-0.02439617	-0.057438124	-0.012043701	-0.027051352	0.05320942	-0.03557773	0.01428191	-0.15430945	0.025352323	-0.20242788	0.07236736	0.07195792	0.05620977	-0.046277918	0.046925534	-0.07490832	-0.029728977	-0.0357645	-0.08134934	0.067027144	-0.004882707	0.0634419	0.012614776	-0.09430425	-0.034602042	0.091350354	-0.010094971	-0.15280958	-0.14945848	-0.19617364	0.113641605	-0.14496157	-0.07001252	0.06162476	0.066924326	-0.032850586	-0.17699526	-0.0002999844	0.056874733	0.0437186	0.071308024	-0.10184702	-0.09959284	-0.051959537	-0.13375641	0.08231771	0.053089708	0.06578673	-0.113644235	0.110799946	0.04864126	0.14841506	-0.04135621	-0.010614074	-0.1848916	0.14235522	0.0013101854	0.06956068	-0.1487784	0.054776046	-0.061059758	0.017085481	0.048876524	-0.10918372	0.1392531	0.04087669	0.13471144	0.012458139	-0.13601401	0.029667985	-0.046460636	0.01020748	-0.05536097	0.14631686	-0.030705636	-0.0058356333	-0.021988489	0.12108956	0.22638023	0.072897896	0.09374104	0.071846	-0.07741277	0.1081757	0.15930647	0.07234214	0.050339792	-0.07192553	0.032992065	-0.012094351
Q109	-0.045828808	0.2738867	0.16437173	0.1793846	0.12715828	-0.11018052	0.093763575	0.16786698	-0.09697394	-0.055384323	0.022620225	-0.08163412	-0.01175527	-0.12822351	0.060454234	-0.025555229	-0.037514184	-0.25860924	0.004900959	-0.29127845	0.15150107	0.080357775	0.015367233	-0.047117155	0.07805789	-0.16854888	-0.031448472	-0.14110437	-0.127866	0.034840994	-0.032736182	0.101600096	0.018669993	-0.13810869	-0.03209163	0.18446727	0.055711005	-0.17500651	-0.14492975	-0.20931171	0.21619022	-0.3058456	-0.095749065	0.12070455	0.10682594	-0.113939084	-0.20062898	0.053542092	0.03848726	0.16568667	0.14438283	-0.21989559	-0.18872447	-0.06808707	-0.1791345	0.20138672	0.09336896	0.0559948	-0.16009013	0.2468092	0.12839544	0.22304308	-0.0610944	0.11618739	-0.34005287	0.18769096	0.08533952	0.08604503	-0.11999012	0.11959535	-0.025014017	-0.08117321	0.0078483885	-0.16361101	0.27502763	0.081355445	0.16359757	0.017011626	-0.17906792	0.047686275	-0.106657304	-0.021738013	-0.118686624	0.1815748	-0.077887386	0.033192396	0.036231246	0.11195968	0.27668688	0.12494668	0.17083399	0.110490985	-0.14182585	0.088688955	0.23742646	0.1632495	-0.029734246	-0.10754078	-0.06808172	0.017415604
Q4946	0.009556733	0.22520593	0.13021083	0.36002436	0.008063145	-0.13759705	0.2315666	0.14176707	0.0068201497	-0.2271541	0.058236036	-0.057316102	0.07329772	-0.117676094	-0.024164239	-0.014930184	-0.020699961	-0.2762301	-0.09907388	-0.32802087	0.22957629	0.025564408	-0.00218077	-0.12680677	0.13938855	-0.32433066	-0.070091724	-0.22836648	-0.13865525	0.24990222	-0.22383802	0.23804075	0.2431188	-0.08423832	-0.15354066	0.24024896	-0.049707044	-0.21172991	-0.1338907	-0.36365414	0.33907783	-0.35342628	-0.27090898	0.21880317	0.12865627	-0.08320524	-0.22911362	0.021146486	0.10682988	0.15496896	0.30111974	-0.28636852	-0.27371413	-0.1256188	-0.2939398	0.36002475	0.095239565	-0.06241652	-0.0641183	0.3945196	0.12135286	0.25792837	0.20327766	0.03271315	-0.5669793	0.3754301	0.13178182	0.07231332	-0.26803496	0.14515422	-0.08468437	-0.04597735	-0.07967722	-0.22318055	0.2177454	0.28375408	0.26333147	-0.05425319	-0.2252411	0.1623139	-0.085164405	0.09263326	-0.12225383	0.24586907	-0.17335044	-0.022732897	0.03076555	0.064519115	0.21556896	0.037955437	0.2601561	0.122100495	-0.27022237	0.21133633	0.09921451	-0.016507104	-0.028125338	-0.05710896	-0.0033693498	0.11721179
Q6496	-0.05319326	0.25587723	0.12229646	0.16485827	0.08686805	-0.23296285	0.10259186	0.212727	-0.071414314	-0.026234368	0.06299082	-0.04691635	-0.057214007	-0.11964693	0.13815665	-0.05954237	-0.041513346	-0.32498583	0.013418815	-0.25381866	0.15322834	0.15168886	0.09067512	-0.08132424	0.10398868	-0.11934448	0.02853299	-0.19643399	-0.11975559	0.056965567	0.029986706	0.07682379	0.11301338	-0.0682109	-0.028140724	0.15399691	0.035076648	-0.26841912	-0.19412056	-0.2873568	0.13321823	-0.29186884	-0.025361437	0.03210359	0.043934077	-0.061107587	-0.2358524	0.061730437	0.022901213	0.14420372	0.12414059	-0.16357736	-0.1754972	-0.032590188	-0.10713797	0.1154567	0.17265804	0.027243437	-0.16874959	0.1729454	0.13008146	0.23679808	-0.12442153	0.03765277	-0.30460006	0.15969214	0.01159991	0.07687159	-0.21539675	0.110108055	-0.13495237	-0.053490248	0.05915041	-0.1521258	0.20278305	0.1077603	0.14431605	0.014378062	-0.2384927	-0.013363115	-0.043042846	-0.0054296367	-0.112643994	0.20383656	-0.05940872	0.016160898	-0.034537107	0.15981144	0.3175226	0.11891894	0.1670253	0.07235679	-0.16363089	0.107740305	0.21660507	0.23194617	-0.029358763	-0.08931459	0.015571267	0.03376494
Q3368	0.14860769	-0.43294466	0.24239038	0.6367775	-0.39519393	-0.2585812	0.35652	0.33604613	0.10816092	-0.112216346	-0.050118625	-0.017568743	-0.024022998	0.0975125	0.07418579	-0.21874976	0.023742089	-0.363221	-0.4294749	-0.17832422	0.23870806	0.31512398	-0.123957805	-0.046649113	0.01570598	-0.34771714	-0.20990288	-0.5469092	-0.1888981	0.52108544	-0.39420587	0.24006072	0.63314915	-0.142659	-0.19968782	0.19267175	-0.08331332	-0.33159825	-0.2126716	-0.5215145	0.09846982	-0.539155	-0.28907907	0.25475445	0.13533331	-0.2175733	-0.35107216	0.37560993	0.22182156	0.5298202	-0.18815865	-0.52565193	-0.017303413	-0.27314878	-0.29609138	0.5819886	0.0086388495	-0.21842057	-0.012455313	0.4691076	0.039619353	0.10964924	-0.13311358	-0.09981663	-0.5328847	0.72175413	-0.059634715	0.453577	-0.21868968	-0.036087215	0.388903	0.40341163	0.026083663	-0.46555105	0.5963127	0.4512441	0.16139501	0.18826203	-0.20161217	0.012382712	-0.2605066	0.36812156	0.040842056	0.7528686	-0.005867353	0.106977805	0.29424846	0.018722245	-0.02947963	0.10764322	0.6741414	-0.046482388	-0.10230412	0.4778674	0.04636525	0.14539614	-0.16353366	-0.18733001	-0.045670163	0.38008606
Q7620	-0.058381494	0.1985959	0.07615947	0.083155386	0.052512966	-0.12477701	0.04006059	0.13518745	-0.07295192	0.0019984178	0.023459151	-0.021662079	-0.060822144	-0.08188863	0.06384837	-0.03382767	-0.021501973	-0.14854825	0.012769838	-0.17761324	0.08618772	0.083919846	0.05488949	0.0017668951	0.030621635	-0.06280383	-0.023599703	-0.07392484	-0.051392715	0.0020814717	0.041060474	0.043578133	0.02126707	-0.10796802	0.002912527	0.08714933	0.0012965574	-0.11435628	-0.07099861	-0.1371531	0.0793587	-0.1809761	-0.011006997	0.0074659116	0.0075404546	-0.05617268	-0.1556682	0.04602629	0.043392505	0.0974199	0.0514697	-0.100306325	-0.08990613	-0.021907503	-0.04924286	0.06514803	0.07573466	0.011875782	-0.124552704	0.12923028	0.054814804	0.11961017	-0.07855525	0.05101999	-0.14353688	0.07918746	0.03989111	0.053893387	-0.093758285	0.059052538	-0.05597246	-0.037301663	0.038780525	-0.08436473	0.13210756	0.03719973	0.093000755	0.014313832	-0.12134571	0.004100439	-0.04511764	-0.0248413	-0.052579626	0.10424546	-0.017788174	-0.003537709	-0.023234798	0.10677074	0.18341461	0.10451402	0.102981664	0.038265936	-0.05756453	0.027063223	0.16303006	0.16979446	-0.036693987	-0.07863706	-0.029749338	0.024829246
Q111	-0.04944645	0.2977551	0.12350781	0.282806	0.093237095	-0.070399255	0.07697528	0.23734984	-0.105479755	-0.21470036	-0.067077294	-0.123844214	0.068966396	-0.013922599	-0.024498992	-0.0014937272	0.083209336	-0.13670498	-0.015431596	-0.509142	0.24049635	-0.028565321	-0.03737243	-0.07565324	0.168692	-0.24002616	-0.096205726	-0.024264647	-0.16194777	0.19344556	-0.07933735	0.19980593	-0.016468251	-0.1533076	-0.09970318	0.22727214	0.054164995	-0.067696765	-0.15148503	-0.25589097	0.26835242	-0.3010162	-0.24722873	0.220148	0.12354807	-0.06898863	-0.19637692	-0.051046602	0.11397083	0.14989057	0.2877697	-0.25819537	-0.2748185	-0.09802566	-0.3322497	0.26926792	0.030510964	0.03828141	-0.14307705	0.31548548	-0.004961139	0.19522442	0.18304724	0.00403889	-0.48121235	0.36541283	0.21313143	0.06255472	-0.19444868	0.23898636	-0.0718054	-0.020315979	-0.027296355	-0.15110281	0.17823188	0.14709753	0.23415573	0.06955881	-0.15494092	0.15129936	-0.12201242	-0.011131156	-0.14844824	0.17061065	-0.13201943	-0.027985243	0.004110163	0.013792801	0.26469207	0.033485774	0.22550988	0.13934593	-0.149481	0.14282918	0.18677936	-0.06528419	0.10334888	-0.10247611	-0.027714575	0.017990466
Q112	0.08988045	-0.06653958	-0.20811602	0.2931636	0.14059426	-0.37838575	0.521956	-0.18673202	0.31581098	0.029556494	0.23434055	0.111771	0.0024510794	-0.48082158	0.18884443	-0.11658879	-0.19218521	-0.6305429	-0.28341562	-0.059781894	0.24941407	0.08850006	0.22565928	-0.42641675	0.25384733	-0.412564	0.24044654	-0.94994843	-0.14368972	0.41944367	-0.26586893	0.24284641	0.82027036	0.21209499	-0.07662617	0.28708017	0.009746067	-0.43960336	-0.108682714	-0.7785523	0.32857218	-0.6565762	-0.021146966	0.14112459	-0.082853705	-0.057790864	-0.25668666	0.31522503	-0.07090571	0.281827	0.471394	-0.24685465	-0.25036073	-0.023081433	-0.16717014	0.5468652	0.37398377	-0.14731282	-0.029751854	0.50266844	0.42544338	0.16576032	0.2558376	0.06273175	-0.7539544	0.49668643	0.044878095	0.13941701	-0.53256345	0.15614565	-0.34153312	-0.09700774	-0.094276614	-0.24885562	0.17469725	0.52645683	0.41158074	-0.30094472	-0.49045545	-0.13563809	-0.05692097	0.17901778	-0.36070955	0.27659348	-0.2797849	0.0077436278	-0.019826237	0.04804624	0.23184007	0.07189519	0.4292866	-0.10043829	-0.5040673	0.22184473	-0.23449579	0.23175867	-0.42869958	-0.06942256	0.058798444	0.27290988
Q7706	-0.09351936	0.19912341	0.0880355	0.09933326	0.08845461	-0.1761126	0.0141350385	0.20998156	-0.12782581	-0.04827916	0.009588441	-0.10595863	-0.113617234	-0.017925527	0.0511172	-0.07389865	0.022063786	-0.15494655	-0.009046907	-0.24942811	0.13424657	0.043358754	0.044554677	0.01737389	0.068576336	-0.101341	-0.027975908	-0.0885505	-0.11718645	0.08164222	0.036683194	0.039857224	0.05485431	-0.14179225	-0.007860559	0.16087586	0.059034396	-0.14084077	-0.07883205	-0.22473092	0.027895344	-0.22990818	0.014788846	-0.031947747	-0.002939369	-0.05064515	-0.09939948	0.043610886	0.08770936	0.19453156	0.114614904	-0.15932001	-0.09107361	0.035120115	-0.09762288	0.0866286	0.117419116	0.010971579	-0.113111846	0.12426164	0.01372089	0.09510051	0.0045392383	-0.022017853	-0.25805157	0.19597444	0.11552283	0.09240284	-0.13732693	0.14386241	-0.013310787	0.012594166	0.09453108	-0.088311814	0.15868333	0.078677826	0.03331083	0.04001087	-0.16510534	0.059551917	-0.10190821	-0.0673456	-0.12382906	0.1645154	-0.0030693463	-0.005571923	-0.024932824	0.058600854	0.19527851	0.1336236	0.16899626	0.08395637	-0.028407888	0.017711133	0.20707394	0.19525668	-0.034804128	-0.18344504	-0.03305382	0.033697348
Q10633	-0.06712244	0.20743333	0.073201925	0.090610296	0.08593896	-0.121058494	0.0017969386	0.18258302	-0.10147598	-0.033020083	-0.016687589	-0.05227455	-0.05411542	-0.038004298	0.03388344	-0.036601424	0.010340127	-0.09728199	0.0070175966	-0.24927518	0.1122141	0.07117647	0.028177993	0.011934381	0.05193671	-0.06538843	-0.030265627	-0.02527373	-0.08052886	0.029128976	0.026590412	0.057120953	-0.0016438357	-0.14773789	0.009581086	0.10518259	0.0107134385	-0.091805585	-0.08781924	-0.15523669	0.060404006	-0.14938347	-0.042105567	0.021875191	0.026770234	-0.06550919	-0.13828401	-0.0025852358	0.07651774	0.10375459	0.09037689	-0.115249924	-0.09549877	-0.0040876972	-0.06464153	0.079834454	0.05932282	0.0138921	-0.123274274	0.15104939	0.02174267	0.09938545	-0.026945598	0.0100619495	-0.18657295	0.12542467	0.073928975	0.044962477	-0.07656196	0.09434543	-0.030990927	-0.022508947	0.031636108	-0.07644243	0.1312607	0.04069135	0.113075726	0.020436881	-0.115462214	0.026538689	-0.07828691	-0.021735415	-0.06378282	0.09232642	-0.010510396	-0.00513682	-0.01949393	0.067022644	0.19448753	0.08335438	0.12907846	0.06325622	-0.025117103	0.029862063	0.16201282	0.1320798	-0.009933337	-0.12094807	-0.03528113	0.031348195
Q6921	-0.025912125	0.2033323	0.09805095	0.16302608	0.022151839	-0.15397704	0.068403445	0.21974537	-0.06498232	-0.12046132	-0.02458183	-0.049364623	0.009235483	-0.046157245	0.051547874	-0.029402854	0.0077017047	-0.19601929	0.015055972	-0.24131796	0.09231004	0.10754015	0.041515782	-0.07560686	0.051532604	-0.1187027	-0.01776586	-0.08793981	-0.081956685	0.114771895	-0.04025805	0.095073655	0.028759096	-0.09663216	-0.09222742	0.09245974	-0.038180966	-0.1793081	-0.17856844	-0.21817312	0.15886535	-0.18310691	-0.12013229	0.08952584	0.09648845	-0.041553084	-0.2191107	-0.008446067	0.06332981	0.04140366	0.09541909	-0.13514651	-0.16067177	-0.066676795	-0.15673687	0.13085918	0.07221845	0.051407702	-0.12655921	0.1660803	0.0547494	0.19037446	-0.017436795	-0.0014536246	-0.25665072	0.1744284	-0.011549133	0.06670242	-0.20087852	0.06341606	-0.06883627	0.0076693837	0.035817195	-0.14661945	0.15774888	0.07494516	0.17509757	0.011962442	-0.16060156	0.028277656	-0.052656088	0.036137223	-0.052787077	0.16770785	-0.045558758	-0.019061849	-0.030495768	0.14920565	0.25644988	0.07246033	0.11574388	0.05926913	-0.123135366	0.15587015	0.16074318	0.049587652	0.061671585	-0.038109615	0.048734378	-0.0069768378
Q13717	-0.07905009	0.26292437	0.1348425	0.13594896	0.10028932	-0.13107884	0.047643535	0.20437935	-0.11171988	-0.047990758	-0.017148936	-0.053712744	-0.047713988	-0.085018516	0.051403236	-0.036246892	0.004833193	-0.18601343	0.0020589267	-0.30355132	0.15050523	0.09145681	0.020318337	0.0005230488	0.051359557	-0.13070261	-0.03779837	-0.07145668	-0.09720552	0.04439791	0.005157411	0.07698598	0.018414991	-0.19229484	-0.0067032846	0.14638865	0.015663225	-0.15025015	-0.10275168	-0.1970296	0.14264579	-0.26060772	-0.065156944	0.055813067	0.031237526	-0.11133433	-0.19240394	0.051141948	0.06789412	0.16222942	0.12915164	-0.18314217	-0.13839564	-0.026955767	-0.14118601	0.1584245	0.08018508	0.02911231	-0.17289151	0.22363617	0.071901634	0.17673211	-0.057112433	0.049289994	-0.27914217	0.18914482	0.105322726	0.076745085	-0.102296636	0.117369056	-0.02523493	-0.05753825	0.03542299	-0.15314779	0.23255348	0.072532706	0.14452697	0.033014398	-0.15376095	0.031095682	-0.11802615	-0.0361905	-0.09167381	0.17817621	-0.03324108	0.0025527785	-0.01986508	0.12780882	0.2573843	0.12773901	0.17360464	0.09265228	-0.07320869	0.05717553	0.22742173	0.17194754	-0.0125288535	-0.1309955	-0.060203288	0.036224313
Q3198	-0.039643157	0.093548104	0.0559477	0.09882992	0.0073093125	-0.12625243	0.021137906	0.17975388	-0.051450916	-0.057495102	-0.010147497	-0.0359988	-0.06039804	0.0062916395	0.05310342	-0.043413214	0.003464315	-0.119601764	0.006135152	-0.13271393	0.033643782	0.08371848	0.022351624	-0.040517006	0.03140317	-0.047603223	-0.015297288	-0.06868126	-0.06521009	0.06654538	0.027264664	0.03960723	0.039554298	-0.07282246	-0.035073966	0.05268709	0.016051203	-0.10058906	-0.114877105	-0.13534132	0.042909242	-0.10695032	-0.023913093	-0.0029298132	0.033556815	-0.025603915	-0.11225361	0.013002156	0.040641848	0.060449332	0.032776978	-0.09237558	-0.059402097	-0.02681489	-0.0772547	0.0634103	0.06243991	0.007594126	-0.070223644	0.089267515	0.0027255847	0.10733062	-0.04573168	-0.04856319	-0.123211555	0.10901912	-0.004537821	0.054979693	-0.12242705	0.036318626	-0.02218527	0.042306945	0.060817003	-0.07119467	0.10720998	0.04560726	0.063706726	0.023272334	-0.08753975	0.0017882226	-0.045932308	0.015853254	-0.032611884	0.121354744	0.015474087	-0.016152693	-0.016710114	0.08272285	0.15136479	0.048677597	0.076264195	0.022024533	-0.0344113	0.08766657	0.115717836	0.0789501	0.045744497	-0.045008197	0.04433412	0.03000795
Q10313	-0.023435926	0.105353855	0.068601236	0.11154539	-0.00570185	-0.14806983	0.04472409	0.17678206	-0.05670798	-0.094693504	-0.010364278	-0.049597915	-0.025938526	-0.013831699	0.046128623	-0.041618392	0.007152891	-0.14576049	0.013227077	-0.14820845	0.043151412	0.07596139	0.04492606	-0.056392055	0.035047747	-0.06075658	-0.019892186	-0.061015844	-0.059323806	0.07619528	0.016048176	0.029477324	0.046160027	-0.038136348	-0.060040485	0.070549354	-0.0009786919	-0.12987702	-0.13447633	-0.1594364	0.062757246	-0.13724396	-0.05124309	0.021180635	0.049894266	-0.012991322	-0.13410895	-0.0008301038	0.019631494	0.056861304	0.056955706	-0.078834526	-0.06848104	-0.020117735	-0.09737149	0.067760795	0.06583016	0.021428755	-0.05810441	0.06399634	0.0144173	0.10031832	-0.020811133	-0.031947006	-0.15737651	0.13092823	-0.027477086	0.06527864	-0.1666603	0.013176924	-0.031054778	0.05504261	0.064013086	-0.073945016	0.09704265	0.05946739	0.08020707	0.0119401375	-0.11325426	0.029211711	-0.031270817	0.016552057	-0.044934545	0.12989298	-0.002427129	-0.032375425	-0.03157394	0.092910364	0.16958822	0.066695675	0.084449	0.049363576	-0.05006876	0.10534694	0.12099628	0.04649936	0.0498036	-0.04326902	0.055865392	0.010419228
Q114	-0.03040591	0.21396083	0.11685604	0.14278658	0.045255836	-0.15171148	0.04280734	0.20926993	-0.08535823	-0.076020256	-0.012247267	-0.04323379	-0.0315566	-0.07044839	0.09259348	-0.02507439	-0.001977745	-0.2000789	0.038611498	-0.22308287	0.068030834	0.119406864	0.04752772	-0.06542179	0.043159734	-0.08105008	-0.02209491	-0.06911911	-0.07605767	0.03693411	0.018152287	0.062459737	-0.006944234	-0.10616071	-0.044761065	0.09524369	0.0016944762	-0.15626404	-0.17427479	-0.18475927	0.14477324	-0.18093017	-0.06593597	0.07599726	0.06992782	-0.0607433	-0.20231096	0.009333696	0.04236437	0.051370867	0.05707086	-0.12791634	-0.11113042	-0.049087126	-0.13364281	0.098459065	0.0750873	0.06546084	-0.11926444	0.14132653	0.086182415	0.17499456	-0.084163606	0.028145434	-0.20760483	0.13063858	-0.01362179	0.06725512	-0.15295061	0.04064495	-0.048940595	0.0017650718	0.056007463	-0.12188585	0.19815391	0.0422208	0.14291705	0.006995258	-0.15007532	0.010178408	-0.06340795	0.019486524	-0.072269246	0.15938738	-0.015094869	-0.0149049945	-0.019754935	0.1562112	0.25213036	0.09968428	0.11168205	0.053194754	-0.08986718	0.12177914	0.18087456	0.10254313	0.05052604	-0.05142798	0.021283789	-0.01526815
Q7505	-0.05333995	0.11583976	0.046007622	0.09574848	0.036475584	-0.1724877	0.008771194	0.24277058	-0.09955441	-0.13898934	-0.013670033	-0.0770813	-0.07233787	0.03691772	0.05854661	-0.056169275	0.039890688	-0.112396665	0.037193645	-0.19953547	0.057359442	0.051986847	0.07346635	-0.041566227	0.067933924	-0.057322312	-0.013786566	0.00027671724	-0.1048663	0.11316056	0.040612638	0.052940574	0.026618587	-0.053204566	-0.06251432	0.08461357	0.016149761	-0.15157661	-0.1433936	-0.2105078	0.029260242	-0.10532553	-0.042662982	-0.013494941	0.021738473	0.032844264	-0.11551733	-0.038211796	0.060016066	0.044350754	0.09110507	-0.05295454	-0.09585649	-0.005482752	-0.09932818	0.0041963775	0.094053	0.055333667	-0.09445069	0.057370923	-0.013768704	0.09175913	0.018211044	-0.100492604	-0.18686263	0.13675773	0.018709103	0.043707192	-0.19695726	0.07517911	-0.05455944	0.0872549	0.09227854	-0.054106485	0.044127762	0.058821723	0.065252975	0.019430835	-0.11821543	0.03712257	-0.036011633	0.012479648	-0.07610001	0.11859531	-0.0015822477	-0.04483563	-0.067169905	0.064804055	0.20337276	0.05273256	0.07027102	0.07258418	-0.033815287	0.09442153	0.14074734	0.033727262	0.08477612	-0.08616397	0.0815744	-0.010191745
Q9737	-0.08932094	0.1670364	0.09521979	0.12856123	0.043333903	-0.23710564	0.021693967	0.3284587	-0.1312668	-0.15249929	-0.023093611	-0.119496614	-0.08309105	0.065435246	0.11386321	-0.06459843	0.063482456	-0.18342057	0.042043548	-0.2816219	0.044213142	0.07305724	0.05889964	-0.08896402	0.09074437	-0.08567324	-0.018697182	-0.039986555	-0.13983606	0.13283671	0.07144354	0.025047822	0.052881446	-0.067886494	-0.0721497	0.1341791	0.080659024	-0.21670948	-0.22588411	-0.25222963	0.051692054	-0.19675294	-0.05467443	-0.0075191003	0.071683444	0.02426942	-0.14512017	-0.037629474	0.051117964	0.08204182	0.094630554	-0.10071289	-0.1044603	-0.008186128	-0.17407195	0.019890964	0.14797403	0.07534388	-0.11559811	0.05417403	-0.02002458	0.12619878	-0.015654663	-0.123195015	-0.25079894	0.19959688	-0.0045235297	0.07553054	-0.27891293	0.0928442	-0.050301794	0.13442227	0.16854413	-0.08667483	0.1380766	0.061034333	0.08039514	0.037926644	-0.16814558	0.028094497	-0.06933316	-0.021930248	-0.11620953	0.1899847	0.004210993	-0.062169615	-0.05742249	0.08126586	0.25693572	0.09181525	0.10066852	0.087779514	-0.040710416	0.12928595	0.20284282	0.06944674	0.122863315	-0.1134279	0.11107786	-0.0049377964
Q115	-0.05976162	0.24544697	0.08771723	0.11458043	0.073963374	-0.1402845	0.049868543	0.19795959	-0.118099496	-0.06748766	-0.0038635856	-0.05969603	-0.034080874	-0.053536303	0.056360032	-0.035326682	0.019390289	-0.15462576	0.020088969	-0.26556057	0.09825482	0.07420646	0.030229323	-0.025683524	0.058142044	-0.11548973	-0.04543613	-0.05838052	-0.094381146	0.03439894	0.028913364	0.040196538	-0.016788844	-0.121912785	-0.015404921	0.11451472	0.04313937	-0.1135443	-0.10929926	-0.16280174	0.11409667	-0.21627918	-0.05928435	0.06434057	0.041243367	-0.05347721	-0.1565121	0.023629833	0.038993765	0.10427902	0.113688305	-0.12934306	-0.13430877	-0.023152985	-0.13579044	0.116117	0.07589784	0.04650138	-0.13471168	0.14162298	0.05342043	0.13637406	-0.016489498	0.04063977	-0.22073019	0.15407875	0.07048108	0.06141554	-0.1406057	0.108723484	-0.059015702	-0.012222328	0.06522564	-0.10677052	0.16663532	0.05079605	0.11758372	0.0466287	-0.119258836	0.031683218	-0.08568676	-0.028751848	-0.08580335	0.12699449	-0.030722138	-0.0037111067	-0.027979199	0.109359615	0.22199619	0.08784959	0.13007078	0.06931812	-0.070706494	0.061176296	0.19163372	0.1147329	0.023874577	-0.08860206	-0.023859436	0.011698742
Q116	-0.03269122	-0.031072207	0.19105771	0.19235776	-0.058296688	-0.30982018	0.014699244	0.48096293	0.0097206915	-0.31352416	-0.08964157	-0.15382853	-0.16442385	0.123263076	0.15515824	-0.12186837	0.016821181	-0.34540948	0.10993652	-0.15096179	0.06418448	0.20441474	0.1214779	-0.21509883	0.15605237	-0.083857685	0.051519886	-0.124219716	-0.1774683	0.31625763	-0.083776794	0.12067043	0.21432285	-0.037120316	-0.18824412	0.15538917	-0.01393251	-0.512413	-0.49298182	-0.5057042	0.062440973	-0.107372634	-0.08248504	-0.081408426	0.17175232	-0.01436674	-0.23047408	-0.13155286	0.12376767	0.0059440816	0.027304051	-0.20221458	-0.09416141	0.00965474	-0.23567119	0.024648705	0.17889686	0.12861925	-0.099292465	0.103303604	0.045301367	0.17802648	-0.040846825	-0.3271742	-0.43196097	0.23304014	-0.25392497	0.17171843	-0.4505973	0.04915309	0.018385494	0.2836598	0.21226798	-0.10487613	0.278224	0.068818495	0.14703019	-0.01682247	-0.35739407	0.031974155	-0.025113024	0.09088935	-0.10583189	0.40439466	-0.05448586	-0.061307643	0.041884497	0.1770748	0.3082711	0.086288124	0.18308617	0.08643207	-0.16778563	0.2866316	0.15442517	0.019350905	0.27782264	-0.12084622	0.27858663	-0.06971595
